industry,0,1,2,3,4,5,6,7,8,9,10,11,12,13,14,15,16,17,18,19,20,21,22,23,24,25,26,27,28,29,30,31,32,33,34,35,36,37,38,39,40,41,42,43,44,45,46,47,48,49,50,51,52,53,54,55,56,57,58,59,60,61,62,63,64,65,66,67,68,69,70,71,72,73,74,75,76,77,78,79,80,81,82,83,84,85,86,87,88,89,90,91,92,93,94,95,96,97,98,99,100,101,102,103,104,105,106,107,108,109,110,111,112,113,114,115,116,117,118,119,120,121,122,123,124,125,126,127,128,129,130,131,132,133,134,135,136,137,138,139,140,141,142,143,144,145,146,147,148,149,150,151,152,153,154,155,156,157,158,159,160,161,162,163,164,165,166,167,168,169,170,171,172,173,174,175,176,177,178,179,180,181,182,183,184,185,186,187,188,189,190,191,192,193,194,195,196,197,198,199,200,201,202,203,204,205,206,207,208,209,210,211,212,213,214,215,216,217,218,219,220,221,222,223,224,225,226,227,228,229,230,231,232,233,234,235,236,237,238,239,240,241,242,243,244,245,246,247,248,249,250,251,252,253,254,255,256,257,258,259,260,261,262,263,264,265,266,267,268,269,270,271,272,273,274,275,276,277,278,279,280,281,282,283,284,285,286,287,288,289,290,291,292,293,294,295,296,297,298,299,300,301,302,303,304,305,306,307,308,309,310,311,312,313,314,315,316,317,318,319,320,321,322,323,324,325,326,327,328,329,330,331,332,333,334,335,336,337,338,339,340,341,342,343,344,345,346,347,348,349,350,351,352,353,354,355,356,357,358,359,360,361,362,363,364,365,366,367,368,369,370,371,372,373,374,375,376,377,378,379,380,381,382,383,384,385,386,387,388,389,390,391,392,393,394,395,396,397,398,399,400,401,402,403,404,405,406,407,408,409,410,411,412,413,414,415,416,417,418,419,420,421,422,423,424,425,426,427,428,429,430,431,432,433,434,435,436,437,438,439,440,441,442,443,444,445,446,447,448,449,450,451,452,453,454,455,456,457,458,459,460,461,462,463,464,465,466,467,468,469,470,471,472,473,474,475,476,477,478,479,480,481,482,483,484,485,486,487,488,489,490,491,492,493,494,495,496,497,498,499,500,501,502,503,504,505,506,507,508,509,510,511,512,513,514,515,516,517,518,519,520,521,522,523,524,525,526,527,528,529,530,531,532,533,534,535,536,537,538,539,540,541,542,543,544,545,546,547,548,549,550,551,552,553,554,555,556,557,558,559,560,561,562,563,564,565,566,567,568,569,570,571,572,573,574,575,576,577,578,579,580,581,582,583,584,585,586,587,588,589,590,591,592,593,594,595,596,597,598,599,600,601,602,603,604,605,606,607,608,609,610,611,612,613,614,615,616,617,618,619,620,621,622,623,624,625,626,627,628,629,630,631,632,633,634,635,636,637,638,639,640,641,642,643,644,645,646,647,648,649,650,651,652,653,654,655,656,657,658,659,660,661,662,663,664,665,666,667,668,669,670,671,672,673,674,675,676,677,678,679,680,681,682,683,684,685,686,687,688,689,690,691,692,693,694,695,696,697,698,699,700,701,702,703,704,705,706,707,708,709,710,711,712,713,714,715,716,717,718,719,720,721,722,723,724,725,726,727,728,729,730,731,732,733,734,735,736,737,738,739,740,741,742,743,744,745,746,747,748,749,750,751,752,753,754,755,756,757,758,759,760,761,762,763,764,765,766,767
Energy,-0.052950133,-0.043150056,-0.0822032,0.05157915,0.034943182,0.07432545,-0.25033835,0.037940994,-0.13319053,0.07169575,0.025304653,0.07675763,-0.1156315,0.22907452,0.20121484,-0.085663795,0.14883906,0.16109253,0.107406765,-0.079394616,-0.1732518,-0.0773488,0.076953016,0.020360976,-0.10417631,-0.027842775,-0.12673719,0.22030659,0.048345465,-0.054506924,0.1080527,-0.07837204,-0.051638145,-0.11697098,0.07320789,-0.09177638,-0.21737976,0.09490356,-0.08182033,0.01601713,0.147545,-0.105834484,-0.03698888,0.013438798,0.039475027,-0.25647965,0.054682765,-0.27074862,-0.046560735,-0.079654805,-0.07111036,0.20887005,-0.0020120007,0.029414987,0.11416167,0.09958368,0.0314717,-0.048550963,-0.124587394,0.117631145,0.046862748,0.020072455,0.010139287,0.04846159,0.06905449,0.04891165,0.04195853,0.09463645,-0.045287877,0.022498572,0.09977486,0.16699956,-0.0045989514,0.21647489,-0.18999197,-0.14913891,0.16149183,0.03576807,0.0706321,-0.11147821,0.07039661,0.1350873,-0.13658322,0.07876324,-0.062947385,0.44913006,-0.026193539,-0.008178683,0.13133055,0.096848875,0.062207628,-0.019070547,-0.029534688,-0.101655126,0.1270967,0.07980103,-0.083274476,-0.11929379,0.04338577,-0.11448083,-0.11225305,0.059449267,0.26122797,0.024196008,-0.04705189,-0.23161678,0.00028559938,-0.16707039,-0.04240954,0.029153526,0.03497413,-0.044991832,-0.059475455,-0.1511904,-0.062043842,-0.11022238,-0.070033096,-0.10254737,-0.1835234,0.0450848,-0.066351384,-0.03983699,0.009216157,-0.002992091,0.1326958,0.1990755,0.057564884,-0.026937276,0.0033945509,-0.046034638,-0.030639783,-0.070301585,-0.109003305,0.035131145,-0.05576651,0.20939286,0.123443805,-0.14260668,-0.10322338,-0.033202827,0.07339737,-0.036363054,-0.06784272,-0.092576474,-0.13643692,-0.021602117,0.035230678,0.12932993,-0.043502588,0.08132334,-0.006792251,0.014313929,-0.039827272,0.06839471,0.10643598,0.06848439,-0.108047046,-0.11293412,0.20910494,-0.1528783,0.035924535,-0.011112101,-0.22311813,0.047415588,0.068236455,0.057864856,0.03655076,-0.102345996,-0.21585989,-0.12870806,-0.020348294,-0.07026374,-0.013539847,0.17305277,-0.090792865,-0.1187372,-0.12325642,-0.044965237,-0.2081772,-0.13561022,-0.13415152,0.063594766,0.060052246,0.19233961,-0.06385354,-0.062042743,0.22737527,0.025391916,-0.030666674,-0.014988714,0.043722395,0.003986094,-0.0038425017,-0.03568765,-0.09420902,0.0999644,0.10822481,0.24018331,0.054912966,0.0084818555,-0.04837842,0.060472175,-0.04926059,-0.3535622,-0.09001223,0.096625745,0.010862497,0.041882828,-0.09064875,-0.107149124,0.23906982,0.031677116,0.09555066,-0.09633859,-0.12334662,-0.26508558,0.020868821,-0.026802713,-0.15339743,-0.06664194,0.0057783667,0.13476805,-0.044513498,-0.053442445,-0.024935966,-0.032417465,-0.14776437,0.043734577,-0.03933043,-0.08612249,0.0135593265,0.0861749,-0.013716776,-0.056671064,-0.23012216,-0.03442361,0.074871674,0.4687233,0.06800441,0.030854104,0.08200269,-0.053061306,0.079755135,0.025746556,-0.012834105,-0.10786889,0.018025696,0.052228335,0.03397429,0.049020275,-0.004114351,0.11397567,0.14048313,0.12724598,-0.015225333,-0.04666559,0.14943823,0.091696836,-0.062063828,-0.13031505,0.08497072,0.023545029,-0.080443926,-0.079987854,-0.087758265,0.0026206374,0.16404851,0.26306632,0.09812507,-0.005795935,0.021012759,0.027350476,0.02588402,-0.13458765,-0.031939212,0.12920326,0.061278064,0.06744398,-0.1788433,-0.02403052,-0.020675879,0.03396846,-0.11397331,0.11510137,-0.0028724384,0.059842955,-0.07695207,0.17597274,-0.070902124,0.21230912,0.10798893,-0.021541243,0.09405947,-0.15031421,-0.1217145,0.049839217,0.14606255,-0.0122543955,0.15376103,0.0065322467,-0.091385506,-0.038902957,-0.08390608,0.11928952,0.053380456,-0.059223335,0.12777573,-0.05783919,0.12753312,0.008585201,0.08996347,-0.015871199,0.24263895,0.18667252,-0.22037323,-0.19525222,-0.020832576,0.14687963,0.049671564,-0.043305207,0.11927518,0.035540476,0.09722263,-0.1609491,-0.06781624,-0.09060045,0.049415052,-0.0039480017,-0.03306509,0.067878015,0.14283721,0.007760048,0.13250141,-0.09930999,-0.043749418,-0.10348151,0.089895904,-0.043270234,0.03129403,-0.029287795,-0.03942743,-0.11069051,0.02452855,0.07959313,0.40150714,0.16003324,-0.043884695,-0.012854013,-0.07310909,0.001273624,0.13031884,0.11001876,-0.056823224,-0.07512556,-0.034422934,0.14193164,0.115239464,-0.07428869,0.036115907,0.009898921,0.070222646,0.13441215,-0.18272299,-0.20131059,-0.22666912,0.07072917,0.040957812,-0.089512385,0.0023393892,-0.10755325,0.2279411,0.05983052,0.1772321,-0.112919725,-0.017076755,0.1532201,0.078107245,-0.18481667,0.020751813,-0.032567594,-0.038523328,-0.060473382,0.06544087,0.09773155,-0.05439431,0.17244072,-0.09220525,0.009025976,0.14131431,0.0055748946,-0.027911434,0.29029638,0.13342308,0.10097877,0.23699963,-0.12422372,-0.11940319,0.03188491,0.11828804,0.015530802,-0.012187496,0.4585226,0.11837801,0.043675933,-0.07240419,-0.071488075,0.13846096,0.062374797,-0.09207908,-0.17758359,-0.24929546,-0.3260714,0.08396107,-0.036875103,-0.15475295,0.031304814,-0.08338701,0.106378675,0.067095615,-0.07043516,-0.078298636,0.14933245,0.027237168,0.07674793,-0.014167628,-0.04562934,-0.19283819,0.27615008,0.14957945,-0.10537585,0.10983423,-0.2255621,-0.013760562,0.047956616,-0.10147441,0.15435183,-0.047990307,0.12829971,0.19215536,0.11325114,0.02276504,-0.026132762,0.48363367,-0.12085869,-0.12658851,0.11363324,-0.003419578,-0.033959683,2.8769175e-05,-0.07941637,0.096509166,0.08577088,-0.26584223,0.11763056,0.18907106,0.10301164,0.02936685,0.08073534,-0.08397689,-0.09571745,0.1385169,0.6340911,0.11331435,0.0148887485,0.051080417,-0.2537777,-0.055851433,-0.5496266,-0.045636598,-0.019707473,0.1206776,-0.039879426,0.0024407792,0.1639374,0.0808287,-0.006176306,-0.010970592,-0.15567882,-0.09077712,-0.0187701,0.070820384,-0.14806075,-0.24117233,-0.03403415,-0.016700175,-0.062390547,0.0022309646,-0.054308612,-0.03699882,-0.017197177,-0.062046338,0.08476297,0.006652077,0.44835618,0.10050443,0.1457452,-0.1671894,0.07273939,-0.11854499,0.13263905,-0.067847945,-0.079674445,-0.05914162,-0.18556039,0.008943567,0.119692326,-0.04996555,-0.08984247,0.036056712,-0.17264998,-0.02392377,0.08855032,-0.13344336,-0.035107523,-0.0283569,-0.014865324,-0.07341214,0.2333839,0.05055712,-0.14796616,-0.104748555,0.011779338,0.0021212806,-0.0052943677,0.019179916,0.26516497,0.08005872,-0.024852209,-0.02018688,0.007812564,-0.065472744,-0.097205035,-0.047473002,0.064158,-0.09352702,0.19817705,-0.078091405,-0.18703778,-0.07087286,-0.15163636,0.15603305,0.005820448,0.05434218,0.12641282,0.10794634,0.12923343,0.17729346,-0.02010419,0.0013052439,-0.19932215,0.1489675,0.11352923,-0.14841825,-0.041214954,0.10807595,-0.07971131,-0.03206219,0.048936088,0.08245178,0.07827961,-0.23341501,0.0874482,-0.088447094,-0.052299257,-0.07806065,-0.020268371,0.049230438,0.003679332,0.19927414,0.032973465,-0.048345555,0.026331946,0.044798326,-0.008901597,0.038288895,-0.08779093,0.030230446,0.14232633,-0.02202583,-0.08152766,0.18882072,0.10731394,-0.0019233655,-0.05173322,-0.106261194,-0.005270546,-0.010127765,0.026918853,-0.015889274,0.0018191487,0.042592037,0.12709104,-0.09703628,-0.107263945,-0.1466406,-0.037169468,-0.18267958,-0.05263585,0.06700656,0.051576078,-0.038880154,0.016124114,0.094378196,0.07171773,-0.010730524,0.0143604465,0.10389558,0.059153993,0.07915225,0.15634874,-0.11979589,-0.13621485,0.013016445,0.042856466,-0.19013377,-0.052846164,0.02629085,0.11692657,0.10423485,-0.052521635,-0.0029103875,-0.07685522,-0.2087217,-0.018072827,-0.23158236,0.28436747,0.095773704,-0.06324127,-0.029902251,-0.1775542,-0.20568627,-0.030321633,-0.19542535,0.12487652,0.099967144,0.18355632,0.003433399,0.0071137943,0.032142106,0.12558228,-0.092778645,0.06362027,-0.14911146,-0.13955012,-0.005819898,-0.123333015,-0.20248275,-0.1465803,-0.051393718,0.06362459,0.17341243,0.50717205,0.07527537,-0.26637968,0.045675088,-0.025949398,0.12330385,0.027515488,-0.06690628,-0.058986813,0.05560329,-0.021149257,-0.07724243,-0.04933721,0.11105937,-0.03447989,-0.065390155,-0.08039448,-0.022297516,0.00044589615,-0.06707642,-0.079569355,0.0032651282,-0.085924186,0.027359068,0.26803908,0.07495609,0.14502464,0.067263894,0.0717555,0.044146836,-0.0909422,-0.024187908,-0.15451881,-0.37694803,-0.04014525,-0.0034780211,0.18072765,0.09048021,-0.039176792,-0.18558373,0.008979215,0.06141892,-0.011537902,0.17245793,-0.032412853,-0.06044161,0.05150063,-0.13165592,-0.040067296,0.017338648,-0.098384224,-0.03972426,0.11842438,-0.23236449,0.051344816,-0.013477231,0.059732486,-0.03015884,0.170406,-0.0114021795,-0.07004843,-0.113273025,-0.08146199,-0.038557876,0.014660184,-0.02591899,0.07342664,0.07692589,0.07464752,0.024123779,0.07481562,-0.035259336,0.012225043,0.04363065,-0.09510651,0.16868834,0.11939341,-0.12529762,-0.06541307,0.13454074,0.0101177925,-0.016334146,0.0676481,0.04464398,-0.0399573,0.39248243,-0.15184319,0.10639798,0.0053222612,-0.046444822,-0.0258075,0.000795048,0.05329667,-0.07175497,-0.15359974,0.03776035,0.098951526,0.10918871,-0.049312335,0.08433632,0.036467016,0.063856445,-0.08991468,0.080857605,-0.11445234,-0.10553952,0.020060053,-0.023779387,-0.21612592,-0.07872457,-0.022896985,0.038828447,-0.14982052,-0.012922232,-0.07790115,-0.039995585,-0.13033026
Materials,-0.07161965,0.058506746,-0.04177199,0.030294614,0.0657215,0.05970536,0.058710977,-0.024079682,-0.3749297,0.032408956,-0.0910539,0.21597074,-0.09570491,0.0453881,0.086137064,-0.14637667,0.02004839,0.09092917,-0.25398806,0.018183433,-0.08683294,-0.010047291,0.077560365,-0.075036444,-0.16521454,0.021629808,-0.067809306,0.122802734,0.048029393,0.032482725,0.26800513,0.066997044,0.01091667,-0.09825519,0.09457191,-0.021120599,-0.055407148,0.017853266,-0.08097168,0.12761965,0.22731596,-0.31380996,-0.2208545,0.010695059,-0.027914694,-0.13968368,0.030658895,0.045373756,-0.100023866,-0.054629773,0.01428868,0.27023748,0.2215362,0.038107533,0.3937384,-0.1739132,-0.11655027,0.011829984,0.13350083,0.2199927,0.07442958,0.068457894,-0.040939495,0.040201485,-0.11137437,-0.042414542,0.15697765,-0.103751995,-0.12277689,0.14810878,0.36043182,0.0077007264,0.0011606514,0.110571414,-0.140553,0.09354205,-0.04745677,0.28402543,-0.11120599,-0.15833648,-0.055738505,-0.13504937,-0.13209277,0.12643974,0.01331604,0.17573597,-0.120630026,0.029142609,0.061462205,0.06635801,0.07920895,-0.059766844,0.06965398,-0.09911335,0.0864018,0.08435037,0.02440664,0.037737753,0.11373842,-0.15418337,0.18888555,0.17084463,0.017094998,0.10830612,-0.15282388,-0.24657084,0.1726742,-0.02663523,-0.07276508,0.054364387,0.15095535,-0.12821402,-0.041192155,-0.10390725,0.09577766,-0.14860053,0.18807697,-0.046729673,0.027875757,-0.012749913,0.05799226,-0.03292114,-0.12956537,-0.050855175,0.06098461,0.06403407,-0.05015004,0.04796079,0.09461408,-0.041101653,0.064380094,0.07116642,-0.01006993,-0.01561071,-0.06891141,-0.06697676,0.010980505,-0.16575103,-0.18936718,-0.05770443,0.07144536,0.006629376,-0.04950276,0.11449853,-0.013792392,0.04326676,-0.021000901,0.118658625,0.06133276,-0.0073287184,0.070617236,0.056435794,-0.10482892,-0.095176436,0.07745143,0.033332545,-0.11825031,-0.18447602,0.09194956,0.16250658,0.0015819321,0.0046983487,-0.27535564,0.028832505,0.035432022,-0.068417914,-0.30901417,-0.16432971,-0.08014096,-0.22188479,-0.00506597,0.03905904,0.0148954475,0.12221772,0.09577785,-0.37339488,0.03829624,-0.09965006,-0.17678201,0.068028234,0.11521879,-0.11026976,0.10983747,0.017393155,-0.13880712,-0.10265275,0.15536015,-0.052767906,-0.07337097,-0.09260553,0.007380992,-0.024619892,0.061504383,0.13715453,0.064732425,0.0742467,-0.06063618,0.12930334,0.009789937,-0.032580126,-0.0068828645,0.07381471,0.3368945,-0.051900167,-0.21461964,-0.10670436,-0.07547723,-0.03144505,-0.19037592,0.18323386,0.018454887,0.053575944,0.20340769,-0.07492458,0.023475507,-0.105540164,0.05818088,0.019260889,-0.09137974,-0.050285745,-0.03975351,0.20717694,-0.022721507,0.019014696,-0.03520197,0.02587643,0.010955434,-0.03351506,0.042370584,-0.052877713,0.08041795,-0.0306093,0.046551734,0.14093809,-0.2544736,-0.06600275,0.12905559,0.12869745,0.21352442,-0.313071,0.044014078,-0.19552255,-0.0041070697,0.08157288,0.09794799,0.009161785,-0.111882545,0.0860445,-0.041315258,-0.03723256,0.03548093,0.016577316,0.06239571,-0.01415797,-0.0038273903,0.1392883,0.067631535,-0.0395028,0.12293512,-0.099947475,0.037781164,-0.04966083,-0.00998019,0.06609167,0.0720673,0.04494391,0.11423955,0.034911316,-0.065375686,-0.026335508,-0.16334134,0.03744139,0.031651367,-0.08398741,-0.008182938,0.09907758,-0.13049601,-0.023371378,-0.1447692,0.04705171,-0.048366144,0.1378334,-0.054418135,0.01822543,-0.11018876,0.05072834,-0.043679893,0.019733664,-0.13931592,0.21004196,0.09673214,-0.006430585,-0.029043905,-0.16930568,0.047680005,-0.019712495,0.057732414,-0.0013084378,0.15600187,0.16508383,0.030801743,-0.0833078,-0.03696756,0.09595267,-0.03277014,0.081360094,0.19314384,-0.11179615,0.09524874,0.018254155,0.08388712,0.1270733,0.026585683,0.17857502,-0.049796686,-0.09064279,0.21527769,0.005098329,0.10278872,0.04565454,0.18620193,-0.009654998,0.011425567,-0.13316861,-0.103498764,0.043347683,-0.018418238,-0.12715961,-0.07745191,0.09685885,0.07853461,-0.116603404,0.13542853,-0.001394853,0.08362964,0.11616544,0.0400497,-0.19602597,0.007944714,0.10930569,-0.07184256,-0.20786743,-0.031035261,-0.049985275,0.45939472,0.12872483,0.07555729,0.027308086,-0.08476064,0.21770072,0.19300784,0.03028071,-0.0017860333,-0.043994416,-0.17246325,0.27363908,0.08368561,-0.034798577,-0.021636391,0.0041570663,0.018223735,-0.13137206,0.052685637,-0.02875235,-0.14247672,0.1903974,0.12132745,0.27938032,-0.085184954,-0.13532531,-0.01792266,0.15186399,0.22767156,-0.27430853,0.05363844,-0.043679934,-0.06131125,-0.03519625,-0.011634737,-0.08281948,-0.17870744,-0.025371602,0.1779838,0.068231605,-0.1170013,0.06605,-0.032878015,0.04971212,0.067979455,0.060613398,-0.041493844,-0.22592162,-0.110152505,-0.10300837,0.09115931,0.102882326,0.048987925,0.05674487,0.08896934,0.046442974,-0.10430088,0.14742118,-0.21767329,-0.037178393,0.0636325,-0.24534708,-0.2397811,0.045622718,-0.13461122,-0.1758766,0.12284926,-0.26546553,-0.01841086,0.02358487,-0.21762888,0.041627396,0.018343696,0.020109976,-0.028645037,-0.04703631,-0.17489158,-0.07104086,-0.0905096,0.034737896,0.12590334,-0.1359389,-0.029727787,0.10265428,0.18027882,-0.09935674,0.006669242,-0.10292566,0.08046761,0.09318469,-0.0467878,0.22003792,0.104741156,-0.09413733,0.21896619,-0.035931528,-0.11064767,-0.05631114,0.44156185,-0.100028075,-0.1287838,-0.028946536,-0.038072594,-0.18391125,0.0084193945,-0.07618124,0.052884642,-0.06994146,-0.024290465,0.14304948,-0.087450184,0.005433383,0.04327402,0.22101973,-0.22762686,0.10016936,0.023216179,0.3130541,-0.03845403,0.062404033,-0.08446169,-0.102614485,-0.024571342,-0.520899,-0.02935189,-0.052886665,-0.2002451,0.050507713,-0.07801796,0.18167269,0.017375534,-0.07279102,-0.09951848,-0.17952575,-0.20671414,-0.0052681514,-0.062785715,-0.08037241,-0.09818393,0.11697841,0.04857249,0.05897479,0.12927015,-0.025345623,0.017971044,0.0013449428,0.0009223546,-0.24266756,0.015360647,0.25052345,-0.013070039,0.5181615,0.2691649,0.05351111,-0.21381097,0.13406812,0.08766832,0.03607109,-0.004156834,-0.017461628,0.039662432,0.078554705,-0.043405194,0.011162691,0.08801507,0.11598972,0.028867973,0.1355356,0.0035252322,-0.0037326242,-0.13390209,-0.2328031,-0.095029265,-0.14203936,0.042271882,0.016716136,0.11701402,0.0018158878,-0.07038483,-0.11717015,-0.040800743,0.11688105,0.121955395,0.085340075,-0.083552636,0.032931764,0.08793801,-0.22586183,-0.051618215,-0.0087974565,-0.061166406,0.27921906,-0.052291542,0.12762034,0.01778802,-0.2182979,0.01896376,0.0030539595,0.09591088,0.094712116,0.026504098,0.041140325,0.0014373088,0.15245353,-0.033939183,0.059955377,0.04540701,-0.078359954,-0.05046768,0.13277729,0.06308191,-0.102917254,-0.052094895,0.019228963,0.050360013,0.15665714,-0.04548308,-0.028582424,-0.14234512,-0.01720038,-0.019082136,-0.0503905,-0.03807277,0.063925706,0.21697225,0.076791786,-0.0811844,0.080063194,0.067858174,0.11065439,-0.09443901,-0.07270494,-0.09709197,0.079423405,0.08404807,-0.12628923,0.10889851,0.07201915,0.108037375,-0.222454,0.0992152,0.020602772,-0.1154548,0.11460606,0.044924032,0.20740932,0.022281608,0.13675429,-0.05188277,-0.031226361,-0.17881465,0.1664346,0.060851023,0.110708416,0.035815038,0.041758414,-0.0076622167,-0.13122524,-0.043541748,-0.03404936,-0.124240816,0.18203731,-0.14746009,0.02091503,0.07493946,0.18934251,-0.15175894,-0.031919423,0.022366678,0.16480158,-0.03543553,-0.12251896,-0.014613117,0.15702154,0.20334768,0.017904168,-0.032720532,-0.11666161,-0.030979067,0.1373911,-0.0047945776,-0.04898883,0.0004661406,0.15548629,0.13324364,-0.0060958974,0.09904438,0.07756066,0.0026775163,-0.10359233,0.19659531,0.095147125,0.01459071,0.013237178,0.1347057,0.026359731,-0.24389632,0.10967789,-0.04917601,0.042838376,0.045448035,0.1659929,-0.22766727,-0.22801279,-0.08664835,0.15333408,0.10864069,0.27197585,0.017878482,-0.120158345,0.019221095,-0.12239907,-0.117846064,-0.0692971,-0.13136785,-0.083855934,0.13006522,-0.04908545,-0.039579973,0.022904975,0.07362518,-0.03867103,-0.148458,-0.04187571,-0.046232175,-0.08683511,-0.06063581,-0.08565002,-0.036173597,-0.19609569,0.06493745,-0.09228841,0.13445207,-0.033278763,-0.12661703,-0.059654135,-0.0035314597,0.01336735,0.08713645,0.06420317,0.28945267,0.049820613,0.12236271,0.18603307,0.050524604,-0.07551167,0.06666986,-0.0059156492,0.19448316,-0.0021455537,-0.02304992,-0.11649367,0.07739086,-0.040477112,-0.01074253,0.03768957,0.09538376,-0.021768361,0.05739883,-0.036118884,-0.121308215,0.18614715,-0.16551311,-0.036893357,-0.049678225,0.01225014,-0.031572696,-0.1498419,-0.17297043,-0.13033473,-0.1497715,-0.021270523,-0.12148348,-0.04548719,0.04633875,0.013162541,-0.09266013,-0.068844505,0.07735284,0.050493944,0.07490483,0.15279369,0.12693994,0.10370075,-0.05848363,-0.09538349,0.061057527,-0.07740399,0.14869751,0.017633926,0.20549624,0.047505613,-0.037207495,-0.07680423,0.03344424,0.07161981,-0.16851492,-0.08920125,-0.043075625,0.008696959,-0.005018256,-0.033103082,-0.113353245,0.11363796,0.08380508,-0.15599227,0.07004965,-0.009270184,-0.11422517,0.08172909,-0.27532962,-0.17909448,0.08689982,0.028439147,-0.0047872304,0.007499877,0.10706401,-0.04246923,-0.084703274,0.007836527,-0.012073147,0.068420686,-0.13258998,-0.03212788
Industrials,-0.2896766,0.08428508,-0.05547279,0.079655126,0.10340988,-0.034695692,0.15678178,-0.050970573,-0.065865256,-0.14514248,0.02517617,0.09490507,-0.1508358,0.07138616,0.055793956,0.20106336,0.0019359067,0.13464433,-0.5241806,0.09229398,-0.09074472,-0.016397588,-0.011843951,0.106981725,-0.17510594,0.0361402,0.09109141,-0.006171519,0.090342015,0.32256696,0.175643,0.045591455,0.05294527,0.19984645,0.019528523,0.046435587,0.025386948,0.031744305,0.043823775,0.10010961,0.11232568,0.0049225213,-0.064862594,0.15339051,-0.019514324,-0.070647106,0.060030855,0.009537536,-0.06192183,0.14395687,-0.016042385,0.060526717,-0.12095987,-0.010466803,-0.38359052,-0.0034364837,-0.051489137,0.091948934,0.031039216,0.0003100522,0.08233958,0.0006128121,0.02839609,-0.026517704,-0.030151779,0.0010425054,0.12875302,-0.024706602,0.07691792,0.038880654,0.17417859,-0.09255251,0.06039262,-0.03441512,0.0393767,-0.18502615,0.19944549,0.0074844733,-0.13426495,0.053969823,-0.12697086,0.053956408,-0.022559304,0.08280982,-0.040142782,0.2956916,-0.15153943,-0.10852668,0.052869797,-0.0016443282,-0.0056915935,-0.034833614,0.16532825,-0.06080261,0.07481751,-0.07498763,0.1755627,0.04465699,-0.0062941844,-0.120045625,-0.3247823,-0.02768048,0.14635268,0.036522932,-0.16289753,-0.06059797,0.108722255,-0.024845611,-0.041211806,0.016955785,-0.0440623,-0.13874316,-0.0886745,-0.14862223,-0.08301458,0.014615369,0.15300484,0.041740462,-0.016500369,0.01548614,0.3282718,0.025748983,-0.05781336,-0.009385284,-0.003351381,0.22881249,-0.036730856,0.13932471,-0.045772552,0.2455787,-0.1309332,-0.017599516,0.0056209373,0.1307322,-0.13226989,0.010169681,-0.01095657,0.04869054,-0.2860891,0.081784785,0.1417691,0.019624887,-0.21658655,0.27920648,0.001787906,-0.031809434,-0.01954557,-0.073064834,0.110249,0.062379707,0.018475084,-0.14789864,-0.03301032,0.0015716329,-0.15454131,-0.004311001,-0.106055304,-0.18583529,0.11546999,0.23309234,-0.06447723,-0.15414485,-0.067072436,0.12296066,-0.14412132,-0.007366929,-0.052636378,-0.104649775,-0.40119264,-0.0483085,0.071301,-0.17552161,-0.050961457,0.14139825,0.04739236,-0.29004616,0.054154698,0.043272756,0.12322122,0.06470388,-0.25595954,-0.14274311,0.014672521,-0.045097705,-0.23148589,-0.035808202,0.08576709,-0.1734177,-0.020575814,-0.08565247,0.01121397,0.17114751,0.09039435,0.04332884,0.0664872,-0.09149343,-0.29126784,-0.096412115,0.014048806,0.16653053,-0.12666921,0.01771625,-0.09360063,0.0920334,-0.031409908,-0.16370218,-0.010076025,-0.01892641,-0.31900606,0.19898099,0.31523696,0.10326294,0.123428494,-0.032933727,0.0015138336,-0.065075204,-0.01965326,-0.049753483,-0.30012292,-0.10000828,-0.02124478,-0.048482347,-0.13717413,0.06347194,0.06465912,0.0044155563,-0.03504293,0.050872523,-0.080219746,0.11271604,-0.11230613,0.053579755,-0.036725022,0.006665914,-0.16743402,0.0613115,0.10822246,0.6486301,0.046043605,0.1294653,-0.1143038,-0.17142609,-0.14450136,0.05024279,0.02139066,0.081274286,0.11968048,0.08969617,-0.020417936,0.07232377,0.1544117,0.008321236,0.09193919,0.089527994,0.0058499016,0.010702476,-0.0984761,0.14474232,-0.10018765,-0.022344751,0.14427054,0.049460515,0.009005137,-0.026523558,-0.023210399,0.027158402,0.26830465,-0.12461831,0.13207608,0.0593028,-0.15253979,0.057647914,-0.031875215,-0.040648676,0.051400565,-0.02092085,-0.000529164,-0.038772963,-0.14605172,0.10905723,-0.009446549,0.0015195832,-0.04698924,0.08436412,-0.09833224,0.118451655,0.18095276,-0.026557537,-0.2646613,0.17553796,0.039003816,-0.002038103,0.10529712,-0.016932264,-0.18572143,-0.070853,0.20725623,-0.06322058,-0.054129183,0.078855075,0.09902219,-0.027440876,0.022877637,0.0772668,-0.055350628,0.30015188,0.101934746,0.058239885,0.01121268,0.19745356,0.06421968,-0.011219963,-0.00046712306,0.12464118,-0.030267281,-0.009466366,0.112865426,-0.09077231,-0.032274675,0.36222297,0.13890567,0.052444633,-0.12511209,-0.20023671,-0.076516435,0.028624492,-0.012154759,-0.0013597654,0.050363656,-0.11088738,0.008633278,0.14732227,-0.052417368,-0.0007513447,0.07843463,-0.12496264,0.15159184,0.028005118,0.023861097,0.04222484,0.06507965,-0.15698269,0.1061874,-0.1816203,0.1767754,0.04097006,0.094024956,-0.015153067,-0.0446669,0.15887716,0.09178775,0.22532842,-0.0077103507,-0.05417134,-0.044764075,0.19892654,0.045935683,0.019870944,0.04720076,0.092888884,-0.003905259,0.037345514,-0.06822859,-0.16134825,-0.28403845,-0.07499508,-0.021666305,0.1718166,0.10798395,-0.1661109,0.0096514,-0.024574876,-0.10148744,-0.15364942,0.04027927,0.12051747,0.1588071,0.2355561,-0.16522703,0.017015254,0.13088003,-0.043503523,0.13789842,0.014581857,0.08067962,0.07269178,-0.076407015,-0.06864577,0.12870887,0.05451732,-0.17246065,-0.0980697,-0.2981407,-0.033433896,0.00032118987,-0.1077011,0.05357024,0.016595569,0.01786149,-0.08839893,0.14173882,-0.11674323,-0.07556045,-0.08717843,0.106279835,-0.20310323,-0.008122029,0.047644027,0.01043207,0.23608725,0.23616241,0.04846232,0.08798387,-0.14825752,-0.20619538,0.12370689,-0.0059333723,0.011909821,-0.09320329,-0.07593507,0.0474312,0.052327417,-0.011437724,0.011936635,-0.10452686,-0.046121895,0.036587648,-0.014398312,0.11789447,-0.11332098,-0.082485035,-0.12686497,-0.039320134,0.04503585,-0.13879985,0.05981482,-0.03310055,-0.042870868,-0.115366064,-0.026086299,-0.1185393,-0.068522975,0.27283853,-0.030123152,-0.23810947,0.20077455,-0.040241856,-0.08640969,-0.08403936,-0.23577312,0.13683717,0.07128501,0.051189333,0.13221473,0.00882013,0.009950565,-0.121290535,-0.19387256,-0.18150431,-0.007844822,-0.09561642,0.47227022,0.11247623,0.08023601,-0.009836659,0.24057907,0.15082522,-0.11504109,0.03427288,-0.13450402,-0.23059896,0.044306107,-0.11249308,0.028376307,0.03326088,0.16428511,0.069717675,-0.13289692,0.015877053,0.009209614,0.049213946,0.0970542,0.041741334,0.331757,-0.049127214,0.035297275,0.34757257,-0.052435666,-0.15321624,-0.01241439,0.033362087,-0.29499635,-0.07037015,0.053540576,0.10231117,0.17128119,0.07568425,0.07194014,-0.090221,-0.0778078,0.021052755,-0.013146485,-0.0033721114,-0.16090012,0.1272704,0.15380542,0.08688309,0.061265167,0.121714324,0.16909908,-0.11147405,0.14528206,0.042074207,0.0017876602,-0.10586936,-0.055130318,-0.012631647,0.026639411,0.024947667,-0.040452924,0.06899646,0.13787673,-0.041364454,0.098188356,0.11188858,-0.09124463,0.023839282,0.0059479903,0.06278731,0.087648004,-0.119751334,-0.24527597,-0.0030370736,-0.14342026,-0.064648636,0.080120325,0.17710018,-0.052580178,0.088966176,0.0068184044,-0.14382029,0.050725393,-0.07128538,0.16103518,0.0173336,-0.032460507,-0.12674236,-0.019536031,0.09169254,0.0051543685,0.0644073,-0.11207354,-0.065946184,0.14639989,0.023425892,-0.109820396,0.07443322,-0.13638364,0.0103647215,0.2821885,-0.08900908,-0.04352469,-0.045320567,-0.110296644,-0.15821426,-0.097958446,-0.114500694,0.051499654,0.18522158,0.0044098007,-0.01610731,0.06638324,-0.032546595,0.093066216,0.072364986,0.06881446,-0.11595052,-0.09853396,0.031708628,0.09093638,0.09938252,0.09130807,-0.052392744,0.17921865,0.07012208,-0.04853387,0.024209268,0.28599876,0.06055915,-0.037174627,-0.103510566,0.20791069,0.016794866,-0.06570868,-0.17839327,0.036356624,0.21526916,0.00268779,0.35193115,-0.008379325,0.0751382,0.0535788,-0.07788458,0.09037178,-0.020223405,0.005158333,-0.029846141,-0.06776907,-0.06408789,0.25444636,-0.015166281,-0.017607145,0.12304907,0.02886945,-0.3217868,-0.09785412,-0.17833325,0.013876497,0.14537391,-0.00011693593,0.070576034,-0.17921168,-0.11073243,0.15241441,0.074496865,-0.053299922,-0.17939542,-0.03601362,-0.21306372,-0.4085315,0.10052045,-0.17127925,-0.019789504,-0.037075788,0.18781324,0.1998177,0.21815355,-0.06459881,0.055601347,0.047993097,-0.09737907,0.099595614,-0.11082101,0.044980854,-0.091132626,0.01969129,-0.10684023,0.13068591,-0.046446323,-0.17445347,0.11346037,0.20579898,-0.06310018,-0.1558554,0.102522,-0.21780871,-0.12884757,0.19665667,-0.26409855,0.06990502,0.029735222,0.038814526,-0.22798997,-0.07133468,0.017626293,-0.05308342,-0.069923,-0.06734471,-0.058707185,-0.26955545,-0.036283188,9.295624e-05,-0.073624566,0.0041342536,0.042349003,-0.12541538,0.16810057,0.019480057,0.006637877,-0.004716272,-0.060237154,0.024787456,0.28798974,0.052638963,0.124988705,-0.11225584,-0.07305651,0.12306784,0.05985975,-0.13125816,-0.051099934,0.09318169,0.29341707,-0.04965087,0.067936264,-0.051521353,-0.04967954,-0.122668125,0.17091346,0.065505296,-0.016591873,-0.11618106,0.10903647,-0.08178853,0.04539487,-0.051075332,-0.050568067,-0.04508806,-0.03253779,0.055190634,-0.12962218,-0.100078605,-0.08131344,-0.23381537,-0.14761762,0.14753245,-0.19462538,0.23563714,0.016480323,0.15895373,0.023953607,-0.13431735,0.07215132,-0.043432675,0.08894138,-0.019046502,-0.015349481,0.036348496,-0.0052167717,-0.070848815,-0.19295351,0.052192338,0.21615683,0.038542405,-0.22260405,0.077932335,0.05344066,-0.07020765,-0.07288185,-0.0912391,-0.026602272,0.016062014,0.08483972,0.06560699,-0.06317412,-0.11481817,0.029818088,0.027561434,0.22163226,-0.23306586,-0.035486948,-0.03933423,-0.010885255,0.114349306,0.25166753,-0.1060007,-0.026987888,-0.012392468,-0.0047887573,-0.17395511,0.09051214,0.051740192,-0.06668462,0.15684968,0.07023756,-0.011061241,-0.14704631,-0.15638885
Consumer Discretionary,0.02313141,0.09314469,0.03715747,-0.01675476,0.14359209,0.049174108,-0.004571537,-0.06063072,-0.14383164,-0.049051315,-0.0038430654,0.0064115925,0.045561824,-0.012211153,-0.15218204,0.15020871,0.008850315,0.025005352,0.14569078,0.044435482,-0.024687652,-0.1498783,0.04075957,-0.032534093,-0.11899141,-0.22545299,0.13387595,-0.03734857,0.020652238,0.011092673,0.4897828,0.0801415,0.029344901,0.016821474,0.023554169,-0.15514037,-0.060130764,0.02254058,-0.19601218,0.1174798,0.18142153,0.17682998,0.11768063,0.03689768,-0.046152674,0.07748875,0.08891438,-0.073473535,-0.07266439,0.013506984,-0.00786609,-0.15893696,-0.24637881,-0.052429665,-0.18226565,0.11136411,0.09656249,-0.09675032,0.0025222525,-0.15994053,0.09428733,-0.19013575,0.01923002,-0.03537126,0.13001856,-0.0149826165,0.035992656,-0.10478549,-0.012749897,-0.0084443465,0.51940155,0.12386112,0.03547322,0.12632053,-0.021803489,0.037871085,-0.08610563,0.07465826,0.05282901,-0.04585521,0.006838437,0.14661238,-0.20410077,0.094801895,-0.12459074,0.12056432,-0.037876315,-0.027541641,0.12708463,-0.046271745,0.1747649,0.010536442,-0.11507132,-0.13555075,0.08969913,-0.1049376,0.07200958,0.10962133,0.07385149,-0.0404958,0.1530984,0.08471652,0.04554536,0.05566805,-0.0109238615,-0.062034685,0.048278615,-0.123169504,-0.14829946,0.15709262,0.10008071,0.10066573,0.03586985,0.079648234,-0.06816135,0.059799206,-0.04227104,-0.004817606,-0.10762711,0.08941952,0.12415294,0.049205985,-0.08801094,0.013027668,-0.13752556,0.027192255,-0.32620302,0.084413625,0.06546752,0.22990724,-0.066419974,0.012634426,0.0845726,-0.02946589,0.07191272,0.10267107,0.035828777,-0.07366377,-0.13077916,0.0090987515,-0.005693391,0.010195214,-0.07629225,0.04905265,-0.081104584,-0.13936247,-0.06765268,0.116958894,-0.10938226,0.118350685,-0.03456847,-0.047564566,0.21086697,-0.055465877,-0.041861635,-0.09174891,0.34157568,-0.07342887,0.10777192,0.04700942,0.062138937,-0.006760475,-0.20336194,-0.035931,-0.20121059,0.11137669,-0.21756002,-0.14872302,-0.21168225,-0.10529004,-0.023895575,-0.008479946,-0.15027235,0.12895933,0.22300331,-0.14108042,0.042042553,-0.05800565,-0.30973506,0.029839825,-0.19749036,0.0004951179,0.20954975,0.053498775,-0.22159067,0.038057067,-0.21167962,0.018887524,-0.07696583,0.02004836,0.09192987,-0.25065464,0.007224492,0.04865631,-0.17299828,0.025623793,-0.015671153,-0.0061303675,-0.032671858,0.00022644448,-0.103721574,-0.07254452,0.3651111,0.15553811,-0.12642865,0.007671191,0.048232257,0.041964717,-0.0052314373,-0.02593573,0.35847694,-0.026863983,0.01818975,-0.085144855,0.055474747,-0.05463221,0.13955131,0.12254039,0.0002569761,0.03082712,-0.06146147,0.35884875,0.25943488,-0.105875336,0.26973385,-0.16848177,0.12320063,-0.00599284,-0.0689139,-0.034235768,0.104096845,0.14447078,-0.006903769,0.05115679,0.0115143685,-0.052915085,-0.029243102,0.29490572,0.06714316,-0.22491023,-0.11249592,-0.05756367,-0.022874333,0.055662125,-0.17706272,-0.01484039,0.15210682,-0.11521231,-0.010880752,0.05272036,-0.06836252,0.0762466,0.17314492,0.049919676,-0.18131581,-0.15538938,0.18738373,-0.08289255,0.008287385,0.17213418,-0.03052609,0.022507394,0.0649948,0.020707175,0.04630569,-0.03992025,0.1322585,0.12569334,0.023691598,0.047476064,-0.018454662,-0.10655372,-0.096166596,-0.040757347,0.09029378,0.063764654,-0.0659602,-0.19228287,-0.054125458,0.09355869,0.023397775,-0.114037596,0.042443126,0.022988467,0.0572866,-0.09704487,-0.0421997,-0.08416049,0.07356079,-0.15854445,0.27732223,0.05617851,0.013441983,0.1562659,-0.18714893,-0.14388907,-0.002299013,0.044200312,-0.073953375,-0.047343068,0.007985927,-0.020520218,0.04858205,0.022339154,-0.07342915,-0.13851723,0.07887979,0.077079855,0.19206233,0.24499826,0.03127245,-0.13619225,-0.028931579,-0.013907524,0.099569514,-0.099047825,-0.05800008,-0.06876566,-0.114533305,0.41072792,0.110875204,-0.010363582,-0.009914984,0.030547792,-0.00013373644,0.06681168,-0.14578874,3.543496e-05,-0.120396055,0.10865885,-0.062030435,-0.04458464,0.026734095,-0.064226285,-0.0927601,0.26057473,-0.00026202985,0.3514735,-0.04061898,0.028414762,-0.03576066,-0.21182258,0.0998863,-0.12710162,0.17578617,-0.050454624,0.41454792,-0.074542195,-0.18705675,-0.049382053,-0.10468062,0.0706889,0.03805717,-0.1283485,0.04746964,-0.03905613,-0.06624933,0.07626262,-0.043646716,-0.16015503,-0.092285186,0.19635072,-0.01235832,-0.06901561,0.031613715,0.042071562,0.052857906,-0.0349815,-0.003614305,0.104012,0.05989393,0.1332228,0.07315556,-0.018101634,-0.006957011,-0.1386668,-0.022691566,-0.010434454,-0.101930544,-0.03815222,0.0043768897,-0.013484305,0.059346855,-0.030725876,0.042069383,-0.12275159,-0.10370101,-0.14158374,-0.018956935,0.059811324,-0.06999258,0.34415346,-0.023755321,0.17670119,0.02134486,-0.10186772,0.13322468,0.009421786,0.02423113,0.018311817,0.01055226,-0.19827132,0.05465589,-0.040208973,0.13462259,-0.25306758,-0.0787011,0.012542209,-0.075071044,-0.04719668,-0.0156402,-0.5885254,-0.020216629,0.1004586,-0.15825962,-0.061990667,0.05514642,0.08710803,0.09992335,0.0051079965,-0.0671183,-0.011998035,-0.29279572,-0.04442504,-0.13014492,-0.01419585,-0.06324553,0.0074503645,0.20025969,-0.048040073,0.014476858,0.009051072,-0.059335243,-0.27141792,0.024091259,0.24663082,-0.0013003729,0.1296855,-0.16237989,-0.15912619,0.1483462,-0.01316351,0.31735125,-0.09297098,-0.18369374,0.111894965,0.11581495,-0.040305,-0.09370132,-0.22691114,-0.1811584,-0.024121678,0.07146011,0.03138275,0.17212255,-0.040957477,-0.011797788,-0.017963627,-0.11951049,0.036728643,0.13113184,0.4481721,0.012235774,0.00016366616,0.08736031,-0.2737028,0.27425972,-0.074183315,-0.08128763,0.12741019,-0.04999591,0.011735401,-0.056201626,0.14473656,0.055590283,0.04118523,-0.056036223,-0.25441527,-0.12684697,0.08726361,-0.022277864,-0.047432087,-0.15217729,0.4345184,0.017459754,-0.0050647063,0.13255824,0.033930797,-0.13230082,-0.123221084,0.012046346,0.05841739,0.053138174,0.079391316,-0.02334019,-0.04607039,-0.04656124,0.16187899,-0.27567345,0.14261046,-0.1497561,-0.12991205,0.11473308,0.13937262,-0.050827764,0.04524184,0.026309991,0.21259491,0.06964785,0.042721298,-0.0927363,-0.027510202,0.08705471,0.11905737,0.10130793,-0.053050913,-0.18921731,-0.34651473,-0.08463013,-0.13425373,0.01484411,0.14200184,-0.040265337,0.08105855,0.14827594,0.0040695746,0.02458768,-0.284458,-0.10643272,0.14615442,0.038424972,-0.17666355,-0.44627613,-0.011360715,-0.06741414,-0.15357845,-0.17728661,0.12594323,-0.01866032,-0.10876205,-0.11011128,-0.082873195,-0.03255682,0.05245769,0.24757895,-0.0011157736,0.08586032,-0.088783585,-0.014314677,-0.05109018,0.025127921,-0.030519266,0.010665974,0.10628986,-0.052193798,-0.057075568,-0.025366386,0.08938461,-0.010963848,0.01277245,0.22237945,-0.0755237,-0.019672731,0.07840163,0.21121936,-0.07101678,0.026674649,0.011459552,0.12687531,0.036646847,0.008677603,-0.04361151,0.0029064554,0.04977244,-0.029730063,-0.14066432,-0.16404149,0.017353306,0.12904789,-0.097303435,-0.037000764,0.111689284,0.14773043,-0.06710466,0.1615196,0.046629008,0.022526268,0.011102434,-0.06639215,0.20776121,-0.048427474,-0.016021028,-0.03760776,-0.13008614,-0.03354846,-0.10358046,0.1075204,-0.10028137,0.12216155,0.10206753,-0.13832954,0.15673493,-0.10628309,0.006088377,-0.06382201,-0.115351275,0.008743329,-0.09030077,-0.043487072,0.34265226,0.06711174,0.066732645,0.08937677,0.1577454,0.113342464,0.04994244,-0.0056397803,-0.05111162,-0.088981785,-0.21671145,-0.08097665,-0.05512642,-0.5915755,0.038765837,-0.12504292,-0.16027682,0.0018160098,-0.07115537,-0.1915686,0.382192,0.08063849,-0.07830464,-0.0114789605,0.017221866,0.23329362,0.067848764,0.011937141,0.03601352,-0.075598575,-0.012044036,-0.09888379,0.02560378,-0.029849771,0.19817655,0.04227019,0.019774068,-0.20372124,0.055571526,-0.13219498,0.056706656,-0.09965603,-0.1601276,0.067797266,-0.050805736,0.05363659,-0.16643356,-0.20833902,-0.1149741,-0.16688697,0.004585886,0.0112262145,-0.077658266,-0.007454264,-0.0887783,0.021896083,-0.012322647,-0.0017396926,-0.024490338,0.015390202,0.21820828,-0.036055427,0.03127151,0.13372968,0.05919087,0.10288014,-0.020641955,-0.020796835,-0.28553897,0.07127805,-0.0018186525,0.1338997,0.091762915,0.09895379,0.08449401,0.17977366,-0.06231606,0.09584217,-0.035372913,0.04982701,0.05363358,0.16249806,-0.17362277,0.17407085,-0.07593507,0.03714437,0.008894274,0.04990374,0.09354062,-0.24581242,0.055915248,-0.13563886,-0.15466169,0.036783263,0.05656135,0.013377793,0.28210133,0.11427709,0.04482485,0.04536891,-0.0058698207,-0.017250124,0.08278881,-0.13364735,-0.0357379,0.016011514,0.07334288,-0.2738848,0.067818835,0.01903013,0.25715417,0.2883004,-0.026662076,0.22197929,-0.047273077,0.122407496,-0.08378418,0.28428727,0.15769878,-0.08819784,0.07663652,0.04432515,-0.0768771,0.12759754,0.07495335,-0.081858546,0.085215144,-0.007930463,-0.01539218,-0.037036784,-0.03224486,-0.13782337,-0.010642162,0.08594708,0.11277499,-0.0008902751,0.01872749,0.04825058,0.13604721,0.24426536,-0.07793369,0.14020416,-0.018363863,0.018613072,-0.2072216,-0.037878253,-0.06110096,-0.24384132,-0.066257715,0.053319085,-0.076388404,-0.07387322,0.03956815,-0.009004415,0.28350827,0.043218322,0.03977806,-0.12359343,-0.068287455
Consumer Staples,0.05239251,-0.11443169,0.02810461,0.013210876,0.2490103,0.0828249,-0.0014227247,-0.025940007,-0.16727288,-0.0726626,-0.019818285,0.1808671,0.048400477,0.22539365,0.00016729161,0.058012787,0.04995102,0.13492659,-0.06829793,0.07700375,-0.012130404,-0.06930992,0.15157008,0.0131848585,-0.19299369,-0.21474802,0.13372485,0.02740257,0.062287994,-0.111287996,0.33165467,-0.003648039,0.053544205,-0.1006087,0.12723623,-0.049547493,0.046969507,-0.041002005,-0.13610744,0.016324626,0.021070292,0.08322665,0.027878437,0.04781078,-0.11663666,-0.23783809,0.049293995,-0.07914538,-0.092105694,-0.041734587,-0.0029658778,-0.08029524,-0.06082115,0.04061242,0.09146034,0.06551814,-0.0106689865,-0.038184114,0.21710944,-0.14265823,0.18807289,-0.11306726,-0.0557673,-0.03876623,0.16685036,-0.01403195,-0.023484156,-0.11807016,0.017557234,0.15639131,0.32018274,-0.052083217,0.09599473,0.21720934,0.058026858,-0.09649011,-0.18277276,-0.020857131,0.049436618,-0.036248308,-0.004436484,0.042548317,-0.13416019,0.05751607,0.041582845,0.13212995,-0.07831924,-0.038656164,0.18818724,-0.115361035,-0.089043215,0.06993977,-0.13144274,-0.11186307,0.0696731,-0.1176915,0.056227602,0.049959645,0.058013216,-0.1039238,0.29271498,0.1256189,0.12968181,-0.0460689,-0.11407825,-0.06185216,0.15753491,-0.054368943,-0.2239444,0.11293472,0.13539533,0.01606688,-0.02467463,0.13256815,-0.031333786,-0.02606659,-0.079515815,0.019464754,-0.13469915,0.09082467,-0.025715489,-0.0141878985,-0.12753946,-0.12392314,0.037642717,0.30239177,-0.32051057,0.11469424,0.037953764,0.098102406,-0.03969292,0.11869562,0.03737331,0.086332135,0.038861487,-0.2714504,0.016574971,-0.09519182,-0.20316213,-0.10699785,0.03474246,-0.06335328,0.07021929,0.08664077,0.027620103,-0.12733538,0.009109976,0.14514793,-0.0894238,0.19418593,-0.010949671,0.040431283,0.2620981,0.0002817095,-0.041624084,0.032023665,0.2804189,-0.20156193,0.007194752,0.040078424,-0.064078756,-0.040292025,-0.21642202,0.08577901,-0.22319785,-0.09704228,-0.112047814,-0.20015535,-0.11101208,-0.18064474,-0.009439796,-0.064835005,-0.050358456,0.17310588,0.14966077,-0.15254387,0.0007253289,-0.013010129,-0.25667167,0.076641396,-0.1364972,-0.07219655,0.14397341,0.047093526,-0.19738324,0.15703619,-0.16803649,-0.10990448,-0.0761956,-0.01818058,0.118742466,-0.21732894,-0.0205452,-0.011078847,-0.088139206,0.016801525,-0.02696955,0.20739941,-0.16245368,-0.05412323,-0.04567618,-0.0032311452,0.29397,0.17164141,-0.014851077,-0.026678616,-0.045831084,-0.035363972,-0.1347981,0.006568354,0.2049137,0.01098916,-0.074584454,-0.0809716,0.15472959,-0.20667548,0.15853693,0.16223681,-0.027342606,0.07864596,-0.09575336,0.16627198,0.30845594,-0.031745926,0.13353299,0.01899134,0.1583698,-0.041503236,0.012337484,0.0236888,0.058094908,0.015586734,-0.03792052,0.015527384,0.11905752,0.094382875,0.1665185,0.34147245,0.14427963,-0.15911192,-0.12962365,0.042367965,0.09589502,-0.034914825,-0.11208689,-0.02460076,-0.0013415776,0.041408125,-0.084304936,0.063897155,-0.07329496,0.19239494,0.072103605,0.059310798,0.014292949,-0.07500765,0.25059408,-0.028860258,0.07750204,0.022826528,-0.08977772,-0.03683497,0.11529569,0.09289338,-0.09873903,0.009877693,0.09227751,0.033721957,-0.062158905,0.105762325,-0.08119159,-0.0897113,-0.017474774,0.00033657998,0.10233711,0.12371877,0.0934757,-0.15818468,-0.06690869,0.0710449,0.033138286,-0.069957405,0.008712814,0.13735262,0.009349959,-0.06268832,-0.13335206,-0.09883472,-0.014084611,-0.11954744,0.25670347,0.116294935,0.06971469,0.08228737,-0.15735304,-0.110185765,0.0530769,0.09085405,0.031199267,-0.009909717,0.09351899,-0.09279893,0.04021406,0.095850304,0.0034228247,-0.03335332,0.11074657,-0.05194372,0.074874714,0.13247165,-0.027938182,-0.093746886,0.008299304,-0.09265331,0.13300578,-0.09515785,-0.01790455,0.06694445,-0.111456275,0.2672209,0.07489777,-0.09198929,-0.013100314,0.08648017,-0.010491092,0.045305017,-0.03317805,0.060907416,-0.13060956,0.07908498,-0.03288183,-0.18603306,0.029497761,0.06073241,0.04654289,0.13682818,-0.07703621,0.29687595,-0.15408674,0.14651261,-0.048762865,-0.10546957,0.08252539,-0.07424957,0.19724043,-0.061536808,0.19546244,0.009396482,-0.3737511,-0.011132709,-0.056945074,0.0614478,0.0005857302,-0.059673384,-0.119990006,0.08403505,-0.07537487,-0.12441886,-0.2025967,0.05990456,-0.065714434,0.19533037,-0.032190356,-0.26060662,0.06729697,-0.013387049,0.025027286,0.048797198,-0.13531122,0.021195032,-0.045090746,0.19986162,0.082799956,-0.09815123,0.028503118,-0.023327772,-0.028828157,0.21908669,-0.048713017,0.074588224,-0.06034322,-0.0009803195,0.12870753,-0.04702673,0.050645776,0.000780602,-0.0642651,-0.23493642,-0.0852574,0.024838313,0.01459691,-0.031435896,-0.17437962,0.12078908,0.10254058,0.0471225,0.18100613,-0.1506943,0.006106435,-0.106034294,0.014628392,-0.49546874,-0.005187694,0.015406149,0.16647163,-0.32814446,0.07162736,-0.003343667,-0.16599536,-0.19498913,0.079739794,-0.25067055,0.10691823,0.054423004,-0.15883444,0.0022406094,0.085887656,0.17149954,0.07982613,-0.05593614,-0.06469543,0.04370306,-0.2699608,0.035207033,-0.07631659,-0.09490882,-0.11927192,-0.19137335,0.13565756,-0.122323826,-0.04256755,-0.020875292,-0.030684177,-0.11529963,0.09474291,-0.01037892,0.105361976,0.029323075,-0.07384436,-0.036698032,-0.0053014793,-0.06490274,0.32393658,-0.15320651,-0.16406098,-0.05389726,0.12038671,-0.1132427,-0.14918621,-0.051826544,-0.0759645,-0.008329989,0.16277353,0.15267493,0.1621116,-0.005567886,0.04828334,0.0942633,-0.16776913,0.055478048,0.17013775,0.32019806,-0.027758189,0.059364066,0.10414115,-0.16741177,0.24287473,0.058827087,0.035031956,0.060255714,-0.1556113,-0.022388877,0.038051948,0.16750647,-0.017514374,0.028603988,-0.0071228975,0.014793502,-0.17750543,0.11333221,-0.0032744843,-0.039149366,-0.11751479,0.42663708,0.015313016,0.08847074,0.19537011,-0.08206673,-0.073970206,0.043084934,-0.15434748,0.0011757395,-0.008177403,0.07261706,-0.0063195117,0.19529308,-0.103487946,-0.22440206,-0.29777032,0.016169228,-0.099051505,-0.10597564,0.061972566,0.09468152,0.049932346,-0.02264513,0.060327295,0.123787954,0.07302752,0.019094186,-0.12145618,0.025037494,0.00919665,0.043214366,0.013543276,-0.0052203527,-0.101120465,-0.32764137,-0.023087632,-0.116349265,0.088208646,0.10785255,0.0030534742,0.09270232,0.11212774,0.070304975,0.15050127,-0.19914156,-0.08646615,0.057859577,-0.19532606,-0.21992555,-0.1455898,-0.043745592,-0.12652554,0.2577652,-0.2469463,0.34120652,-0.07170526,-0.1704191,-0.17371644,-0.023316206,-0.020446353,0.08570568,0.21533467,0.13178466,-0.09756496,0.08062269,-0.036397234,0.056070693,0.095160484,-0.008500743,-0.304922,0.09780009,0.13339604,-0.09619512,0.009426183,-0.012096308,-0.10548389,0.24989828,0.22323537,0.039383955,-0.00543632,0.11946365,0.066161945,0.018582834,0.03783932,0.01967072,0.07571484,0.104929656,-0.051675025,-0.016007187,0.0057940846,0.074658476,0.11009061,-0.17836335,-0.1009223,-0.13530107,0.09607831,-0.12262413,0.015582146,0.13819838,0.2156845,-0.1431168,0.18855566,-0.034066517,-0.09032656,0.109414294,0.07985639,0.31268334,-0.115231454,0.1333606,-0.12448426,0.097904116,0.093577065,-0.085203856,0.2752079,-0.066401236,-0.11255757,-0.061126664,-0.029667463,0.081247486,-0.027067583,-0.055606984,-0.19758579,-0.1430232,0.10985051,-0.035633434,0.0016977931,0.26332116,0.031045198,0.096624926,0.11272987,0.13047405,-0.009559929,-0.037183322,-0.14216968,-0.006778851,0.084742054,-0.12912098,-0.08258426,0.031883717,-0.4912901,-0.047627617,0.024592176,-0.06673479,-0.05618154,-0.036763396,-0.090756625,0.12358837,0.19488797,-0.09228271,0.07883763,-0.05258597,0.22664604,-0.13911219,-0.019468995,0.055721194,-0.1109862,0.016225453,-0.029427685,0.15851088,-0.085476995,-0.015528153,0.03884412,0.021865398,-0.18213005,0.12425395,-0.10047273,0.13646258,0.008743341,-0.07847183,0.13015279,-0.07276118,0.054487683,-0.32579857,-0.22540244,-0.014433203,-0.18505809,0.048926953,0.035833526,-0.07122566,0.051310968,-0.05720975,-0.010937853,0.041773707,0.036735564,-0.0036325026,-0.1607965,-0.103713915,0.026681125,-0.05887449,0.03055984,0.15383764,0.19818385,-0.1603164,0.07363133,-0.18804471,0.011613612,-0.1454636,0.093137525,0.14909618,0.046460226,0.17819074,0.1505827,0.19319633,0.097833484,-0.062336102,0.07379662,0.03931918,0.08547771,0.101264015,0.013015907,0.09946792,-0.087760635,0.0643045,0.028821465,-0.041427337,-0.30644023,0.19870324,-0.15850195,-0.10262537,0.15100557,-0.05397234,-0.057925016,0.2043167,0.0031577144,-0.097599,0.080972694,0.21332511,-0.09790075,0.03480428,-0.087045476,-0.06257165,-0.12641451,-0.042989034,-0.30591792,0.016958289,-0.017577693,-0.054770447,0.12763315,-0.12516621,-0.004770696,-0.010071927,0.16934949,-0.12766853,0.113432914,0.14514688,-0.11994019,-0.012020504,0.09543595,-0.13997507,0.010961202,-0.01997686,-0.10036434,0.022097858,-0.026878413,-0.08301974,0.009086102,-0.033078067,-0.19139609,0.039786853,0.16253802,0.13774106,-0.004446922,0.07339246,0.043204747,-0.063147895,0.19573362,-0.061451044,0.042231742,0.043219686,-0.028290916,-0.22647172,0.08047209,-0.076529115,-0.26109815,0.07746546,-0.024004962,-0.034466237,-0.01307382,-0.02559317,-0.038256366,0.0039192764,0.05014143,0.097860724,-0.09510252,-0.10781057
Health Care,-0.15430653,0.22202578,-0.071668625,-0.1394323,0.055490054,0.09813253,-0.0061213006,-0.030548833,0.12901221,0.02646246,0.07577376,-0.0066188723,0.020740287,0.09357236,0.02879259,-0.07662447,0.09978807,0.23416612,0.18085524,0.046326026,-0.17721927,-0.018839963,-0.097902775,-0.04319831,-0.06746719,-0.18014395,0.093644604,0.088501275,0.09792353,-0.012554698,0.2341336,-0.06957825,0.059540167,-0.07033955,0.06415515,-0.043516073,-0.0024086288,-0.023484167,-0.26983863,-0.1837059,0.06373148,-0.3332829,-0.13762805,-0.023566553,0.0102624465,-0.03649432,0.0494589,0.019762147,-0.14825484,0.06736808,0.05032157,0.23140305,-0.12309621,-0.06877202,-0.1185216,-0.2186467,-0.017239675,0.008493038,0.1525818,-0.1266339,0.10854843,-0.006523178,-0.09851802,-0.042396553,0.022322396,-0.006471417,0.020474613,0.099996105,-0.07595013,-0.06959503,0.018692894,-0.026083246,0.045536228,0.12796414,0.0434276,-0.1418105,0.09335742,-0.04898201,0.016327932,0.004117811,0.059612595,0.063701704,-0.1026754,-0.09731379,-0.12934321,-0.16658762,-0.051258642,-0.031084128,0.050781343,0.054437045,0.06698387,-1.7052866e-05,-0.02249842,0.0706331,0.04762315,-0.055430155,-0.034596514,-0.07890646,0.19701168,-0.11455409,-0.10006374,-0.0270501,-0.037106134,-0.010703964,0.100099266,-0.093503006,-0.065645754,-0.18190603,-0.201651,0.0880436,0.18246809,0.02688475,0.046927348,0.18302995,-0.14140458,0.11244814,-0.14244089,-0.16056506,-0.08589485,0.04555372,0.091117375,-0.0031558946,-0.04744199,0.048201133,0.005238153,0.046748385,-0.0075599207,0.11132149,-0.08997064,0.056624014,0.05325713,-0.0244225,-0.024740027,0.04476255,-0.013709252,-0.031911917,0.067131266,-0.15053305,0.019541854,0.053420223,0.035630513,-0.035292007,0.008265786,0.0057824627,-0.018390551,-0.13460898,-0.07805211,0.0005178619,0.0021516741,-0.009203999,-0.25539693,-0.25626704,0.016573373,-0.089127555,0.13853948,0.10415464,0.23724915,-0.08274755,-0.028637424,-0.14257526,-0.17260262,0.036720496,-0.15039672,0.1462681,0.07364113,0.13450664,0.30298868,-0.027258217,0.07068282,0.02810064,-0.1835278,0.056353144,-0.051326856,0.092986345,0.05804643,-0.034340233,0.16507375,-0.19838059,-0.21387374,-0.043545507,-0.27749354,-0.12677896,-0.001688364,-0.016512202,-0.11101593,-0.15633,-0.05738925,0.030906264,-0.10904885,-0.020691423,0.014515847,-0.14740284,-0.26582414,-0.121972084,0.027627178,-0.016238958,1.5206635e-05,0.22369523,-0.008976383,0.085875526,0.029877666,-0.2377091,-0.10102449,0.036457136,-0.0759611,-0.058966864,-0.12573108,0.04741426,-0.014963346,-0.07843409,0.26193434,-0.029799305,-0.026940264,-0.096273795,0.06467886,0.07952762,0.092598945,0.062173966,0.013032783,0.1246735,-0.05519604,0.2882453,0.010248339,-0.011047864,-0.12595446,0.049699124,-0.07688339,0.012487075,0.04946617,0.080028206,0.0940589,0.23674017,-0.043192945,0.03718206,0.0060407035,0.020273188,0.020163987,0.09202749,0.039703116,-0.17215386,-0.12970966,-0.12497585,0.049416523,0.055099003,-0.23078848,-0.030056842,-0.1565218,-0.09674652,-0.12425881,0.20407705,-0.01702276,-0.047284845,-0.004893291,-0.049323156,-0.14855552,-0.03498843,-0.13006507,-0.23945633,-0.03364038,-0.0025278558,-0.011441171,-0.06016156,0.07221935,-0.17173283,0.056624148,0.089244016,0.27075702,-0.047846105,0.107828036,-0.14271727,-0.20638254,0.11471551,0.006932414,0.087993234,-0.16797212,-0.027577087,-0.17800967,0.052864283,-0.081080616,0.079600014,0.09050678,-0.070764385,0.083148874,0.006752321,0.03423379,-0.17331043,0.033587422,-0.03722301,0.02706371,-0.10620244,0.22456706,0.059406076,-0.01747633,-0.113854714,-0.015883116,-0.07182383,-0.09252303,0.011260282,-0.25537363,0.08692271,0.086451955,0.03672673,0.1145389,0.035140544,-0.1802914,-0.057522595,0.11590168,-0.08801387,0.01000575,0.16347739,0.28109568,-0.075043626,0.12946741,-0.059693757,-0.030171292,0.17596065,0.10170744,0.17164192,0.009280821,0.17144938,0.17867838,-0.046731513,0.0030676154,0.10280488,0.11646537,-0.23191807,0.00023874454,-0.014781329,-0.27722442,-0.14069526,-0.14548326,-0.04008355,0.08276239,0.067074664,-0.08240394,0.00033715367,0.119525805,0.16871855,-0.0055685034,0.26255083,-0.12478868,-0.13613777,0.027842633,0.0025018642,0.10254147,0.041338526,0.16665925,0.17710921,-0.051565327,0.030675655,-0.07255234,0.2411615,0.0055660415,0.034648,0.0503201,-0.08696452,-0.15326968,-0.056358285,-0.09158311,0.03921348,0.10797012,0.018734204,0.23939452,0.20132935,0.1823816,-0.05492875,0.015868088,-0.039832447,-0.213028,0.04902932,0.065320194,0.1642564,0.13304782,0.039971262,0.063410714,-0.0116819255,0.09863493,-0.04993437,-0.1916313,-0.0652485,0.008721646,0.04869595,0.16309765,0.03805523,-0.018525317,-0.07629801,0.064090915,-0.041692633,0.4190593,0.041897718,0.11310366,0.040448606,0.011104796,0.4261673,0.22208971,0.051674366,-0.099586554,-0.07997039,0.0097734695,-0.05163057,0.026418462,-0.18632168,-0.056201212,0.14435121,0.16892146,-0.10871644,0.3494708,0.1277423,0.030638285,-0.12966229,-0.099896245,-0.2502668,0.18618333,0.06919566,0.2344157,-0.088044085,-0.04466724,-0.23010519,0.052563164,-0.16731617,-0.052890375,0.12392728,-0.14166199,-0.14562654,-0.09906426,-0.08608216,0.09182986,-0.053439867,0.013680883,-0.07247579,0.035666272,-0.10877636,0.056221813,0.15172105,-0.029157802,0.1598323,0.20287526,-0.11451127,-0.013010772,-0.039137192,-0.111180186,-0.017147968,-0.032313675,-0.11372796,-0.21540931,0.1881499,-0.032679513,-0.00096748536,0.0020634271,-0.04012528,-0.055429228,0.10716529,-0.22340615,0.07421093,0.1795987,0.08959096,-0.14433394,0.25138205,0.084524445,-0.077521384,-0.09772188,0.43571573,0.11607255,0.05852883,0.25651872,-0.075302884,0.06567242,-0.3122642,-0.06909184,0.01564676,0.013830659,0.05739107,-0.0009848949,0.2682572,0.086458385,0.026124073,-0.05967033,0.01873767,0.23635079,-0.16501215,0.050785452,-0.09556797,-0.14925385,0.0049038343,0.0044126995,0.1161198,-0.08312767,0.05005942,-0.10452614,-0.017023658,-0.06934275,-0.04184661,0.07650069,0.121076986,-0.051052123,0.042194422,-0.08265194,0.119470075,-0.20811538,0.029378396,-0.023834582,-0.2795299,0.048491314,0.07104337,-0.067398414,0.07878928,0.06894284,0.1563375,0.0344142,-0.18380265,0.083573684,-0.044909067,0.16945654,-0.16546051,-0.00935922,0.041039046,-0.15862635,0.11499513,0.23868608,0.12645829,0.07642822,0.10333363,0.029587395,0.031759497,0.16988885,0.15160021,0.020931195,-0.07989103,-0.25116122,0.17286655,0.16630775,-0.08011016,-0.17890151,0.0894321,-0.05933763,0.026585106,-0.07863352,0.1629119,-0.2544732,0.08378498,0.059485726,-0.0346269,0.108512014,-0.08618687,0.072086185,0.10451383,0.073361486,-0.06594489,0.07516254,-0.14712381,0.1064029,0.10050407,-0.17955744,0.059562046,0.11184584,-0.08249659,0.010098426,0.06561556,-0.04589218,-0.17551573,0.098868445,-0.07034884,-0.042740893,-0.09661041,-0.019103836,-0.11653677,0.06616627,0.12980011,0.12190964,0.16825223,0.033793993,-0.08901365,0.10147095,0.055614714,-0.08200181,0.11699231,-0.26767427,-0.035870533,0.20134184,0.048032906,-0.013403208,0.025861576,0.14177942,-0.1576773,-0.13367726,-0.052548733,0.0028916225,-0.0049114707,0.19048241,0.11592735,0.12458729,0.07527771,0.0014591981,-0.06427781,-0.11745541,0.037625,-0.102710396,-0.12876362,0.040255375,0.11059452,-0.1590285,-0.207937,-0.030363027,-0.06268332,0.035406254,-0.035308857,0.15223844,0.08847829,0.1405877,0.08446352,-0.16101131,0.07679585,-0.06580926,0.23558314,0.049647506,-0.10002747,-0.19920619,0.14860198,-0.005177075,-0.3022451,-0.20244692,-0.06562202,-0.4436737,0.06746098,-0.24983485,0.045797512,-0.1413381,-0.09527397,-0.10088213,-0.070064366,-0.14497665,-0.1058313,-0.077000864,0.13162008,-0.17735045,-0.0016036034,0.07266777,0.08785745,0.0463498,-0.04639517,-0.23548348,-0.008915018,0.100381315,0.052232992,-0.01787431,0.024290722,0.12485583,0.1781137,-0.0641061,0.18212493,0.120647535,0.071086735,0.1518046,-0.02648316,-0.11096035,-0.123734504,-0.17357536,0.2016395,-0.025806632,0.076354876,-0.030402578,0.0027296674,0.09135848,-0.2402235,0.006273739,0.02053322,0.15395997,0.05453817,-0.14502807,0.037545078,0.13823809,0.042424075,0.11002783,0.17324525,0.070800394,-0.14839235,-0.09773041,-0.10678822,-0.109998256,-0.0060970057,-0.17951891,0.08251235,0.050080597,0.023178931,0.047549076,-0.062114853,0.17193973,0.03576297,-0.012614678,0.061406255,0.12320928,0.13939922,-0.13192081,0.1499238,-0.042249944,-0.016341966,-0.19641389,0.056429848,0.00044120103,0.032829516,-0.31785917,0.050392732,0.11061865,0.07264441,0.11005909,0.020549705,0.008499264,-0.051131878,-0.14964154,0.17681295,-0.01621588,-0.11886567,-0.08141358,-0.1053498,0.22217587,0.11893053,-0.05779189,-0.10467051,-0.077426426,0.04965647,0.08590401,0.008090659,0.036943477,-0.053401925,-0.0076143495,-0.050995905,0.4093762,-0.12465658,-0.047597438,-0.008805939,-0.02005213,0.062972836,0.16665663,0.09451173,-0.08476599,-0.111599594,-0.048892036,-0.17576456,-0.017075727,0.14004335,0.06976202,-0.10569142,0.03150992,0.020137386,0.22359258,-0.047268342,0.122399814,0.074252635,0.22380356,0.057311676,-0.043309726,0.07385313,-0.14107779,-0.019542098,-0.109485716,-0.10308508,0.0051770136,0.08620173,-0.0028141085,-0.11673571,-0.10963369,0.10656567,-0.008139357,0.15977654,0.09841737,0.0326778,-0.07652657,0.008466877
Financials,-0.19750956,0.1922557,-0.10609902,0.1368103,0.09495556,-0.11340368,-0.044740345,-0.049380645,-0.03317438,0.1547987,-0.010089569,-0.0979682,0.028357305,0.19255339,0.0603676,-0.08482426,0.029194793,-0.039401464,0.16200867,-0.079971045,-0.022137215,-0.06027402,-0.06077752,-0.08900188,-0.13105366,-0.18606329,0.010990695,0.11719675,0.08451556,0.23814586,0.042580307,-0.086537175,0.029296663,0.12964424,0.03792747,-0.1068631,-0.1760263,0.028120853,-0.14386344,0.17087191,0.25044748,-0.077772334,0.044067934,-0.121147215,-0.13035335,-0.08249009,0.09998645,-0.020697743,0.034541525,0.018070115,0.1750707,-0.13319081,-0.14891171,0.045380123,-0.111760244,-0.07365215,0.070600346,0.032048214,-0.06417361,-0.29043645,-0.003387155,0.08499941,0.048872054,0.015101334,0.036933947,-0.013627008,0.0040963814,-0.049683526,-0.14547396,-0.019719426,0.26719907,0.18933643,0.053077966,0.03281925,0.13949877,-0.022887843,0.06756655,0.067025766,-0.15573108,-0.14606923,0.15193841,0.14073859,-0.03470483,0.23594093,-0.19393241,-0.18679036,-0.04558894,-0.051605508,0.12752174,0.001309772,-0.32732123,-0.18375129,0.049750812,-0.053916633,0.19824381,0.08167541,-0.17738992,0.13833681,0.07809346,-0.15893184,-0.139252,-0.15076214,-0.14532334,0.16098268,0.01667442,0.067931056,-0.17247595,-0.17909327,0.0029415567,0.0096147,0.015721438,-0.027946942,-0.07923346,0.29729852,-0.113979794,0.0063396133,-0.07002399,-0.055804156,-0.033700712,0.12031837,0.28648844,-0.11178522,0.047053948,-0.06676448,-0.09261192,0.018067077,-0.0865774,0.080216676,0.15731148,0.2628922,-0.010851834,0.033273052,-0.005260999,-0.042809993,0.071330436,-0.006590765,0.20238219,-0.0067711193,0.098441824,0.026775623,-0.037819594,-0.011619295,-0.1721917,0.1666843,-0.058086373,-0.010159177,-0.06901692,0.216768,-0.0149421,-0.11103527,0.12870212,0.065685585,-0.064350896,-0.08797911,-0.018330019,-0.022699414,0.09817572,-0.13486136,0.058733627,-0.10933333,-0.024056124,0.06632792,-0.17564516,0.038471345,0.05709017,0.004349692,-0.009419987,-0.04137434,-0.091897786,-0.14588323,-0.116193,0.100424185,-0.079730175,0.010957334,0.10543362,-0.04210968,0.4509931,-0.08764498,-0.13357435,0.079904824,0.101588055,-0.00762277,0.04091116,0.068938226,-0.15648459,0.06547544,-0.16050094,-0.04501728,-0.15492651,0.12281782,-0.06606573,-0.09439472,-0.26493406,0.06184523,0.10634438,-0.03131158,0.09754164,0.10069997,-0.03130137,0.13166495,-0.03199354,-0.19045682,0.34670928,0.1076574,-0.027481657,-0.086260036,0.04998571,0.016378524,-0.12771565,0.08835867,0.06697634,0.04907129,0.06886813,0.043223117,0.17818515,0.18386178,0.10353647,0.12437198,-0.15278378,0.11030404,-0.041621946,0.14993465,0.14336166,-0.032076366,0.0602243,-0.06479856,0.015345147,-0.054487973,-0.021545041,0.07701752,0.102102906,0.11258903,-0.05934883,0.0641433,-0.0720402,-0.043850206,0.04185565,0.4555999,0.17855254,-0.01768672,0.07637961,-0.043463584,-0.14332758,0.033351086,-0.14832316,0.05792234,-0.06813799,-0.21597263,-0.12666577,-0.034829836,-0.06849732,0.17321777,0.13082416,0.030752702,0.12980936,-0.18125889,0.06777941,-0.17747416,-0.15476233,0.22221267,-0.08024523,-0.02789143,0.006535045,-0.05191701,0.03156172,-0.011320578,0.16486588,-0.048371635,-0.054957,0.054392338,0.04318437,0.0144875655,-0.105123386,-0.10123947,-0.009301554,-0.18816143,-0.28233865,0.010095806,-0.120985076,0.07019676,-0.018514417,0.019501217,-0.10979032,-0.033555146,-0.06768403,-0.11671598,0.12727419,-0.1975324,0.033118837,-0.23831892,0.13564697,-0.024105433,0.09265818,0.11862331,0.012567622,-0.21607171,0.058318075,0.061258867,-0.015087439,0.2415635,-0.2509599,-0.038825095,0.1949203,-0.056558225,-0.12935278,0.23179694,0.10739995,-0.0018077856,0.035562605,0.042772334,0.009344619,-0.04136029,-0.064022556,0.11914553,0.075432844,0.053552274,0.05911044,-0.04049544,0.039330117,0.16194873,0.12203928,0.12764305,-0.0057577677,-0.14517857,-0.14513609,0.17782001,-0.028406037,0.04472872,-0.024947353,-0.0229753,0.008924032,0.012790363,-0.1609148,0.042546365,-0.12796435,0.0456908,-0.09062676,0.12358625,-0.03648491,-0.018709503,-0.042630665,0.020435546,0.057196517,-0.4591548,0.19636184,0.16699547,-0.0829016,0.0077976584,-0.111441754,-0.21933399,0.014973988,-0.11959291,0.047122054,-0.13142815,-0.04981098,0.14718519,-0.11371026,-0.09770469,0.17565301,-0.3148127,0.1268588,-0.0712517,-0.018202256,0.17096558,0.18047494,-0.094065845,-0.009430213,0.15627617,0.16805166,0.08730765,-0.28346565,-0.022137763,-0.06461022,0.1028744,0.11547547,0.20583706,0.014490185,0.017035548,-0.10457364,-0.10860291,0.09354967,-0.23675577,0.19822647,-0.13861948,-0.040865824,0.010301841,-0.076309204,0.0632234,0.0062882397,0.02999032,-0.044017628,-0.07559476,0.1033003,0.27952775,-0.08283821,0.02247832,0.030376296,-0.01141095,0.11412822,-0.0368274,0.10864823,-0.1811236,0.1708101,-0.077384844,-0.0014577471,-0.33057663,-0.05494361,0.072308816,-0.14708929,-0.104696065,-0.1465697,0.14669758,0.06634562,-0.018937103,0.04211283,-0.046882473,-0.036394283,-0.11291977,0.044720825,-0.17037295,0.22248483,0.009420189,-0.14048934,-0.08376802,0.03439778,-0.059486385,0.098756246,-0.014619836,0.001232025,-0.08775055,0.104325645,0.03634222,-0.09975894,0.041231208,-0.19591591,0.1909785,-0.017167889,0.15464914,0.103149086,-0.12472172,-0.19453423,-0.0702191,0.15716588,-0.05671618,-0.28464812,0.21064542,-0.0030102236,-0.09545044,-0.07772626,-0.19180723,0.075450525,0.079704404,0.067759715,0.029636439,-0.0053056944,-0.08905036,0.024184693,-0.15530162,-0.12619047,0.036317036,-0.13402884,0.5307057,-0.16085072,-0.103909835,0.22307287,-0.15489179,0.23383905,-0.32443643,-0.22923718,0.019131273,-0.12413736,0.061522186,0.071227126,0.17863952,-0.08344841,-0.059123646,-0.004871554,-0.016407885,0.04985457,-0.17718771,0.046107084,0.14283252,0.034616426,-0.21407269,0.045825623,-0.07895037,-0.056394093,0.049125373,0.032052256,-0.050026342,0.38344458,0.0049913432,0.042506527,0.11361286,-0.08296069,-0.031783406,0.1065861,0.1779084,-0.110936366,0.11011426,-0.0012121946,-0.053797953,0.012315004,-0.12367264,0.075986326,-0.058213886,-0.052286156,0.0003882125,-0.045719575,0.22437316,0.008432537,0.04613708,0.2065305,-0.053247966,0.14898726,-0.013058625,-0.17793341,-0.1394858,-0.07310732,-0.08883682,0.178513,0.06783193,-0.09383124,0.060183823,-0.04861683,0.028128777,-0.037455164,-0.09500227,-0.046962544,0.14560735,-0.03371668,-0.1560697,-0.27403817,0.101343006,0.02393869,-0.24158895,0.011168413,-0.035801467,-0.024257552,-0.017549517,-0.24078546,-0.11559915,0.19438732,-0.03813299,-0.10889518,0.04695458,0.06761948,-0.03246564,-0.002162749,0.29194182,0.09617283,0.10697095,-0.12245927,-0.026254024,-0.13461226,-0.12684467,-0.028613418,-0.012891428,-0.057091873,0.026665118,0.1831636,0.009128062,-0.088664055,-0.05398899,-0.021535598,-0.059989467,-0.029635318,0.14187504,0.21626055,0.06005805,-0.07468707,0.04903271,-0.020827448,-0.04151196,0.023959495,-0.20906508,0.032877687,0.04997388,0.22835967,0.0053622974,0.18984857,0.10449703,-0.022506978,-0.03516411,0.13216425,0.0023066555,-0.061326288,0.0026406795,-0.026774392,-0.12861508,0.12331952,0.017906008,0.08877895,-0.09631756,0.065642074,0.014695172,0.08627777,-0.061679557,0.09612569,0.016534526,-0.08300421,-0.098323345,-0.15475859,0.17203921,0.11425888,-0.1699959,-0.02593078,0.120099716,-0.0064313496,0.42549214,-0.054621417,0.1864458,0.008224856,-0.24818066,0.15158011,-0.11968649,-0.13862093,0.12124059,-0.09433176,-0.15880965,-0.13653438,-0.017295223,-0.4092271,0.12458804,-0.24522133,0.028312584,0.053617034,-0.08135101,-0.08942707,0.10406399,-0.09705511,0.026383927,-0.0051631816,0.10876958,0.19083776,0.037006807,0.0047783423,0.1636062,-0.09444498,0.012302639,-0.021570902,-0.09891774,-0.09305762,0.08400139,-0.06369031,-0.16761662,0.079411395,-0.017325994,-0.11567642,0.14306694,-0.07401462,-0.09698157,0.25295037,-0.07551362,-0.048812173,-0.10137005,0.115961835,-0.057730064,-0.03854761,0.050378628,-0.11537315,0.0056911996,0.054170668,0.046486735,0.113717794,-0.012408426,-0.028438706,-0.040604375,0.17636022,0.1863762,0.0061906036,0.10536143,-0.029812794,-0.15008135,0.009920172,-0.057197765,-0.0142005775,0.09964526,-0.05646027,0.10901566,0.034643997,-0.002395913,0.14478093,0.108650714,0.07443096,0.05758176,-0.0116512645,0.099431366,0.08112925,-0.036709096,0.061642084,0.15828148,0.09420513,0.05829241,-0.021133583,-0.077201195,0.08611354,0.043892764,0.07207232,0.06535221,0.14811486,-0.15818568,0.0683361,0.027530795,-0.17054996,-0.08174829,-0.11396369,-0.048637867,-0.005628297,-0.14624594,0.04025795,0.07216697,-0.17983888,-0.08062485,-0.11285386,0.20078614,-0.10720318,-0.013321491,-0.057472877,0.368404,-0.051646374,0.08222911,0.07669127,-0.016116513,-0.017202903,0.09484038,0.098317996,0.0507534,0.14825362,-0.07979015,-0.093805686,0.120069996,0.04449509,0.12783968,-0.017255574,0.082094826,0.12895568,-0.0561077,0.15832606,0.14583784,-0.05728679,-0.046664447,0.26194924,0.088531256,-0.06440438,0.013412903,0.032465603,0.12750658,0.23502535,-0.20412916,0.31219658,0.06526961,0.29036143,0.051645912,-0.12101772,-0.09912101,0.0060489923,-0.095992565,0.0582275,-0.1384772,-0.12344132,0.23388083,-0.087123916,-0.047408488,0.19739053,0.08073598,0.08176046,-0.105554044
Information Technology,-0.02294137,0.022935979,-0.08469002,-0.010577003,-0.03571999,0.06799369,0.09526154,0.046512395,-0.013301327,-0.17955075,0.078178674,0.054401383,0.04943326,0.17819233,0.112711124,-0.027770383,0.023150917,0.17939329,-0.1561243,0.14570828,0.07739604,-0.04106941,0.06435028,-0.1592966,-0.024024133,-0.17440042,-0.086391024,-0.020365972,0.035337344,0.018596426,0.16580334,-0.08269529,0.08671709,-0.023929734,0.07703931,-0.009655271,-0.08938075,0.047502283,-0.19313446,0.28304732,0.04236049,0.008261565,-0.08296916,-0.11924015,0.068353295,0.03481954,0.02160247,0.0111373635,0.0021222187,0.050619885,0.05010831,0.25547498,-0.021589536,0.011518252,-0.0917924,-0.054921947,0.0010460671,0.1368243,0.14044243,0.2628936,0.08644371,-0.066622674,-0.047241308,0.045210775,0.011678001,-0.0053915856,0.16270587,-0.061745502,-0.018610418,-0.12980014,0.358416,0.0064036986,-0.014794973,0.08835918,0.014364673,-0.0623652,0.047119737,-0.14513142,-0.081982896,-0.009135681,0.1380868,0.07220425,-0.06287021,0.042021617,-0.14080188,0.14294726,-0.03937984,0.0076235095,0.046506856,-0.12233636,0.21404865,0.08748272,-0.050261132,-0.097447395,0.0633023,-0.069110304,0.044615347,0.008379077,0.056600433,-0.019597175,-0.039664112,-0.07600472,0.17897153,0.023635982,0.18093501,-0.09904957,-0.24061827,-0.12556307,-0.0026355523,-0.058206398,0.041597556,-0.2018962,0.090369344,0.052351862,-0.03067712,-0.04388175,0.18972498,0.020639332,-0.04700975,0.024604531,-0.009406285,-0.033780087,-0.021800518,-0.13804762,-0.08363868,0.08391225,-0.05982494,-0.07026294,0.0046319943,-0.07611468,-0.028031848,-0.020406917,-0.042722706,-0.120078236,0.024893591,-0.070372604,0.07725644,-0.08557698,-0.123421155,-0.10121089,0.1554321,0.008302277,0.11350304,0.07278126,0.029463192,0.050329123,-0.1427075,-0.16555128,-0.03850809,0.06419052,-0.24532288,0.032633904,-0.31337738,0.05202584,0.07683818,-0.058315072,0.3485041,0.07312146,-0.18613222,-0.076437235,0.07353763,0.07767604,0.06206393,0.16615218,0.0021484615,0.11086774,-0.104918316,-0.03514339,-0.22870773,-0.18777691,-0.24404958,0.13674381,0.0028820895,0.2863235,0.18786962,-0.23046996,0.31692266,0.002692964,-0.16951275,0.29750752,-0.2132722,-0.046858173,0.056693137,0.31384957,0.052712604,-0.1928571,0.12897488,0.054050274,-0.1943691,0.0020347573,0.05179262,-0.085971355,-0.2069394,-0.057772875,0.10158114,0.057363756,-0.10730844,0.043835115,0.024871623,0.0802384,-0.03531267,-0.13943335,-0.049636707,0.093827,0.040946398,-0.1312266,-0.029620651,0.010160215,0.0012935535,-0.0038104164,0.21125111,-0.0010965858,-0.057088524,-0.0045035123,0.085070595,0.19104011,0.1418082,-0.051193494,-0.06829571,0.10706,-0.014145879,0.15278602,0.11618911,-0.098961525,0.04135212,-0.035003603,0.03275599,0.05625346,-0.19228408,-0.06866345,0.0015093349,-0.035570648,0.06283352,0.118401885,-0.292655,-0.08567033,0.16226318,0.38794556,0.09906708,-0.14560395,-0.02106182,-0.013173188,0.047392115,-0.029792197,0.16495658,-0.09220702,-0.12400596,-0.04622734,0.006906125,0.081989706,-0.025892362,0.017525185,-0.011902415,-0.018133583,-0.030485308,-0.1502086,-0.31798965,-0.0063342713,-0.076203115,-0.1054305,0.18394619,0.12097185,-0.036470927,-0.113745406,0.0058223726,0.108898796,0.095788196,-0.10787614,-0.024962937,-0.009364063,0.0012389105,0.057187952,0.040783033,-0.093993135,-0.05012353,0.04557145,-0.08901081,-0.18522334,-0.22851878,0.0953284,0.13230522,-0.13746771,-0.010953141,-0.052703105,0.014084549,-0.028934276,-0.010027278,-0.46205032,-0.072677694,-0.12838063,0.05175703,-0.05320643,0.10553416,0.119225055,-0.013100274,-0.047146842,-0.24127246,-0.015432903,-0.06761661,0.16334759,-0.0024720118,-0.051623024,0.00866991,0.15136579,-0.045463443,0.15775044,0.16485782,-0.17897762,0.031580355,-0.10631422,-0.003499752,0.04973321,0.010182913,0.120976046,-0.18116464,0.08103309,-0.03625805,-0.0685969,-0.074313566,0.13168655,0.145678,-0.0112000555,-0.08986445,-0.08745453,-0.026564797,0.01561415,-0.10489862,-0.019169044,0.11698932,-0.10841341,-0.03945421,0.17480272,-0.105358645,0.058329865,0.03891539,0.18697935,-0.080682695,-0.12489858,-0.116077386,-0.01281162,-0.09956028,-0.0015635435,0.22857925,0.06766075,0.40746564,-0.029110245,0.057328474,0.039352253,0.059519112,0.012814563,0.16125682,0.1419127,0.06731444,-0.10945968,0.12810105,0.05623889,-0.11998008,-0.0034528896,-0.16596754,0.30945587,0.16062097,-0.046001215,0.0020277752,-0.017882552,-0.05834668,-0.008653106,0.038602576,0.14850332,-0.06175059,-0.05562499,0.17102121,0.03281168,0.1396116,-0.13355096,-0.025472224,-0.19701965,-0.100057185,0.05248742,-0.11001391,-0.011868331,-0.062806584,-0.35774332,0.16958559,-0.0070937336,0.041259173,0.09160312,-0.06801156,0.047061123,0.3640597,0.06755421,0.13745861,0.25654364,-0.20422374,0.09294057,0.01793848,0.061902754,0.26757365,-0.0043965545,-0.016509937,-0.03832353,-0.005763313,-0.27973583,0.15129733,-0.047259636,0.06990286,-0.033584516,0.20838258,0.05817652,-0.07801885,0.06360016,0.035961904,-0.3046093,0.11728,-0.055432975,0.003330714,-0.087297134,0.02606403,-0.033386424,-0.085604236,-0.027874248,0.05375049,-0.03406904,0.010966372,-0.088722005,0.22945927,-0.16663781,-0.29926813,0.1742372,0.15020978,0.13656771,-0.16003525,-0.06289332,0.017065167,0.023537468,0.21554096,-0.06360759,0.19259223,0.1479385,-0.20065373,0.07909418,-0.18195632,-0.021232158,0.06348625,-0.034138557,-0.124075934,0.25117636,0.004358284,-0.2347127,-0.1906129,-0.12290137,-0.120114416,-0.095160514,0.10551814,-0.033290487,0.07807191,-0.0092905285,-0.051175054,0.2124291,-0.0068943137,-0.060111597,-0.042476222,0.33094978,-0.033391707,0.043787565,-0.0154299205,0.24435881,0.24380079,-0.006637222,0.10237527,-0.03546626,-0.35932854,-0.08177533,-0.0047427905,-0.036200203,-0.112339854,0.044471726,-0.042611085,-0.0951492,-0.031130051,0.0069716163,0.119611755,0.0717532,-0.033708427,0.047077045,0.16180393,-0.011877375,-0.06800044,0.03168058,0.0865068,-0.12458745,0.07379036,-0.001832217,0.11615488,0.23809735,0.08903147,-0.020035716,-0.2382002,0.050001282,-0.35949367,0.26118582,-0.15207781,0.010812072,0.0025868036,-0.05228261,-0.031514525,0.04417306,-0.08006079,0.06463552,0.005819561,-0.061507978,0.04146887,0.12703027,0.10999316,-0.06567084,0.17212531,0.11086651,0.13630675,0.2402691,0.050454803,-0.07743497,0.12698443,0.018064715,0.057496753,0.055132996,0.06714847,0.0065702386,0.054845434,-0.013905015,0.00053725205,-0.03800987,0.071390174,-0.08648809,-0.14423248,-0.058771886,-0.093180194,0.1220824,-0.113131106,0.11894509,-0.08424176,0.0013203087,0.0005769208,0.09216726,0.05738256,0.06350417,0.07686256,-0.0026869886,0.1224056,-0.057762332,0.014558076,0.08022685,0.08953188,-0.102073945,-0.13980566,0.2990759,0.0687638,-0.13476548,-0.12877785,0.0013375524,0.06671058,0.19837165,-0.085926175,-0.08357482,0.11150311,0.09584311,-0.14382844,-0.10014727,-0.04574906,0.105107,0.22085734,0.05052747,-0.11134345,0.104038745,0.039538145,-0.11139894,-0.013589395,0.031607196,-0.012061217,0.0056439075,0.054994226,-0.38233972,0.0510765,0.017878799,0.12924778,0.089944966,-0.06249577,-0.17419422,0.16493055,-0.04950684,0.05517657,-0.14717191,0.13676515,0.23191772,-0.32527596,-0.027101725,-0.10617462,0.1232585,0.2631865,0.010782229,0.25335845,0.046072386,-0.051575147,0.043056346,0.04557471,0.11058293,-0.17017823,-0.03546173,-0.04801728,-0.06597241,0.023266902,0.16000041,-0.05120813,0.025137175,-0.012837298,-0.1279183,-0.5231496,-0.13109405,-0.13704783,0.032123927,0.041393097,-0.09940285,0.013757819,-0.09178406,-0.24656022,-0.2288456,-0.09457835,0.03270641,-0.07034783,0.08339189,0.019071706,-0.28477043,-0.12177022,-0.2638246,-0.022072706,0.0870103,0.048569977,-0.0117309205,0.00013352558,0.0029837985,-0.10343632,-0.011175927,0.122127324,0.01696843,0.0061846655,-0.15858075,-0.023113508,-0.09912745,0.0010773905,0.30135745,0.057694755,0.05377116,-0.18311727,0.12160188,0.07878277,-0.010950349,-0.03966379,-0.055249263,-0.22497064,-0.15057458,-0.1590037,0.1886368,0.088088416,0.11497169,0.033363424,0.017690672,-0.012492759,-0.082402736,-0.03746558,-0.067127064,-0.037824944,-0.041518252,-0.08551882,-0.06329055,0.1446164,0.011444369,0.015967447,-0.113285735,-0.0049665286,-0.17012796,-0.14355895,-0.014647824,0.03731489,0.102564335,-0.05655203,0.031059906,-0.087449454,-0.034219664,0.0018988941,0.14623317,0.018491663,-0.028899055,0.05319041,0.0695326,0.23822913,0.17896594,0.089499526,-0.075754054,-0.00818561,0.19341844,-0.13969648,0.028313026,0.17391083,-0.22903796,0.13155016,0.020230964,-0.56517196,0.12190726,-0.09894229,0.03966897,-0.09241257,0.15431109,-0.027201233,0.07042961,-0.10533057,-0.031080592,-0.3230297,-0.022880428,-0.09186148,0.05088965,0.08612608,0.13842732,0.11347403,0.019055175,0.22423169,0.100077845,-0.13838893,-0.0752227,0.08442537,-0.0024959568,0.040916067,0.116295,-0.1459596,-0.035916533,0.12686604,0.104893364,-0.048415527,0.00040104613,0.18525724,-0.19890594,-0.043504536,0.011199127,0.086278304,0.09305742,-0.015265237,0.056205317,0.07571643,-0.18611942,-0.080645874,0.024614641,0.21359594,-0.056541204,0.040762354,-0.063919865,-0.15456358,0.08473319,0.2648209,-0.03781694,-0.11092669,-0.04200618,-0.02664771,-0.057822183,0.12580797,-0.039159082,0.0559114,0.12081641,0.00823674,-0.06460677,0.025715582,-0.0076162163
Communication Services,0.0069465446,-0.01686173,0.01908039,-0.11836088,0.029891819,-0.03701697,0.12504673,-0.15341014,-0.19369394,-0.087299794,0.10305093,-0.09492837,0.074331686,0.09494461,-0.0003455123,-0.04569769,-0.10078734,0.1955137,-0.084751904,0.15927176,-0.016896756,-0.022599192,0.032865636,-0.13910195,-0.09064879,-0.15642077,0.01169339,0.08773902,0.049216323,0.06805022,0.07242366,-0.0023429487,-0.014160171,0.046281956,0.081626505,0.052133955,-0.08466479,-0.05257928,-0.2997381,0.06278764,0.035392866,-0.15269248,-0.043622833,-0.008801332,-0.01215165,0.09634459,0.06393315,-0.0784629,0.30549344,0.14003348,0.05518371,0.09867875,0.046547655,0.05440824,-0.3211691,-0.21338663,-0.015993897,0.06253371,0.061431296,0.264796,0.06422845,-0.031176317,-0.13022274,-0.03817233,-0.15415153,-0.013208797,0.056142222,-0.03292818,-0.13603544,-0.059512116,0.351519,0.010801425,-0.00061336625,0.07920958,-0.08579062,-0.17866364,-0.0024709888,-0.1428574,-0.1021515,-0.060283206,-0.1666731,0.011961579,-0.18225445,0.029901497,-0.19869651,0.064954035,-0.0003203503,0.055551793,-0.06721813,0.09118296,0.1893347,0.046532337,0.09323692,-0.06592582,-0.016926926,0.08226239,0.10321742,-0.38352782,-0.040060386,0.044108145,0.20648603,0.073300466,-0.0035794768,-0.008156511,0.0022698084,-0.21338797,-0.022839012,0.033724938,-0.018601708,0.0010792753,0.14880541,-0.13225493,-0.044008154,0.18265666,-0.17558448,0.10938271,0.08858078,0.016446054,0.024844144,-0.0058575664,0.07904437,-0.034200482,-0.06934194,-0.004176996,0.035132,0.24602577,-0.07384481,0.21526638,-0.045199163,-0.103603736,0.040623195,-0.24468663,0.053162634,-0.07255656,-0.040449392,0.010548793,-0.049422875,-0.11839603,0.04528111,-0.058988515,0.039550837,-0.009089792,-0.079173066,-0.023036955,-0.07403162,0.0576576,-0.074761614,-0.0714564,0.072694674,-0.005403973,-0.119671576,-0.042035088,-0.13959846,0.026590033,0.060202237,-0.09057233,0.20750931,-0.037783634,-0.18862565,-0.06873284,0.080614105,0.0071040485,0.017715085,0.10718611,-0.084425405,0.14019683,-0.08176602,-0.08122937,-0.17643881,-0.14400594,-0.06813995,0.062178385,0.07794859,-0.004965923,0.1884526,-0.16403326,0.2312549,-0.07879547,-0.16493224,0.18750769,-0.18091106,-0.17251822,0.099383235,0.17741387,0.0771411,0.037280448,0.17056791,0.18031126,-0.17712879,0.060219467,0.09732736,-0.001058274,-0.21020596,0.03547865,0.09464611,-0.06391513,-0.00601367,0.054619506,0.014157311,0.016116759,0.080017135,-0.111933336,-0.023792882,0.07855348,-0.024069251,0.03711839,0.039969128,-0.011437094,0.20163208,0.20762298,0.16720805,0.04661418,0.07540547,0.010916155,0.19432616,0.20321383,0.18890396,-0.08328055,-0.072625995,0.01269483,0.06661464,0.16791584,-0.09912016,-0.04212948,0.3724319,0.08164766,0.008096997,0.015678544,0.044567913,-0.034341328,-0.0071761613,0.039277054,-0.050637044,0.036842432,-0.10115537,0.17218722,0.02562727,0.17641339,-0.028956857,-0.24466604,0.04531694,0.13262327,-0.0599602,0.029219026,0.34673652,-0.06963895,0.15428439,-0.01584753,0.09108564,0.13292503,-0.028560542,-0.061009422,-0.03199748,0.006366223,0.030210337,-0.30196708,-0.19087914,-0.009444587,-0.014133001,0.045797326,0.037252434,-0.01367433,0.0779375,-0.22259921,0.04510516,0.0492946,0.09481204,-0.10190009,-0.122051194,-0.0114630535,0.04658564,0.13480906,0.027251158,0.006885038,0.10465777,0.026482647,-0.09256094,-0.020839222,-0.1652999,0.14826334,0.0990171,-0.08916855,-0.044800796,-0.0798684,-0.034553472,-0.06800443,-0.16265616,-0.31462377,-0.10749708,-0.24144791,-0.06270446,0.05217579,-0.036828488,-0.19170777,0.030361287,-0.043705046,-0.2991029,-0.12848577,0.052921996,0.028655197,0.062218778,0.0024056947,-0.12052083,0.065739706,-0.16797437,-0.15054172,0.027761795,-0.0954293,0.0540869,0.122080214,0.090875365,0.08046314,0.091036275,-0.0043960474,-0.041975502,0.010798785,0.02195685,0.063086756,0.034646,0.054066345,0.14550288,0.036178425,-0.106568545,-0.03942291,-0.019038446,-0.052165926,-0.1011754,0.044368934,0.055814505,-0.24475214,-0.0012565226,0.024809996,-0.03496173,0.15795177,-0.038432106,0.2221686,0.0031579807,-0.075581126,-0.19590147,0.05230467,-0.05834128,-0.054646976,0.18283224,0.0756213,0.20445994,0.04870351,0.0495997,0.052967954,0.01574614,0.17414257,-0.027908321,0.057902984,-0.059028048,-0.066003405,0.063947335,-0.0014165491,-0.15123191,0.08471592,-0.045843367,0.027620198,-0.11215843,-0.12201277,-0.08573866,0.0761413,0.077385426,0.12182583,0.051531754,-0.10266047,-0.11333573,-0.021879055,0.16020238,0.052260265,0.08919568,-0.089074835,-0.01216924,-0.31792375,-0.03630516,-0.15344596,-0.2757038,-0.06557376,-0.0638705,-0.04660797,0.34604645,0.015347673,-0.11170195,0.084495366,-0.027076134,-0.15151261,0.108852506,0.0045680963,0.09664717,0.2348005,-0.09904772,0.11946857,0.11077519,0.16356099,0.022092272,-0.002058166,0.09005098,-0.13245933,0.09331751,-0.18477023,-0.043997295,-0.145442,0.015506918,0.16743402,-0.0012053545,0.16821295,0.007805641,-0.055642303,0.12302907,-0.23460706,-0.023080612,0.110869616,-0.2872823,-0.002636774,0.014391198,0.010214579,0.116285704,-0.08302087,0.06968633,-0.07514768,-0.04181508,0.005036964,0.05402418,-0.084065035,0.16980274,0.21697071,-0.06121067,-0.114748165,-0.073108435,-0.16563725,-0.08128992,0.007879436,0.14549777,0.01519471,0.28617266,0.2282554,-0.17409483,0.07297069,0.100318514,0.10792923,0.45933214,-0.02095361,0.019803744,0.2996378,-0.013360755,-0.086774796,-0.25702265,0.075329185,-0.033115413,-0.03025964,0.14944108,-0.22011282,-0.02573897,-0.0039024241,-0.34004807,-0.03743725,-0.014921373,-0.0056648734,-0.1019565,0.60920346,-0.001641293,0.036716618,-0.15267332,-0.06473684,0.3832129,-0.17335086,-0.039633933,-0.011306069,-0.080802694,-0.02468371,-0.085949264,0.13908559,0.034340553,0.077970035,0.07497504,-0.14285834,0.29096028,0.019319436,0.043029755,-0.03558846,0.015282535,-0.16394755,0.1313699,0.05062564,-0.09010404,0.053668175,0.05019151,-0.11666297,-0.19646683,0.032261863,0.10538331,0.078708515,0.07235487,0.12600476,0.33317322,0.05342807,-0.254168,-0.059008986,-0.09109348,-0.04471609,-0.012739172,-0.027058398,-0.031691507,0.024607457,-0.050210886,-0.023257162,0.019269506,-0.048547056,0.06282541,-0.033202384,0.11149231,-0.1643497,-0.018922847,0.17233518,0.23805183,0.38628322,0.16352755,-0.036129285,0.108467855,0.07704295,0.014142537,-0.013302162,0.11982486,0.017889954,0.11021748,0.039284423,0.036012564,-0.05225309,0.08209104,0.01680692,-0.20768929,-0.16127305,0.03115631,-0.069822334,-0.29463568,0.32423726,0.042431694,0.061054885,-0.061072864,0.008473144,0.16294456,-0.028148182,0.13462768,0.024702089,0.12161759,-0.064333215,-0.0006870864,0.061003294,0.07470016,-0.18348192,0.005668599,0.11764622,0.019321602,-0.19205607,-0.10457867,0.03650002,0.11294225,0.15914544,-0.2399779,0.020475613,-0.07911814,0.032095194,-0.08452403,-0.09440722,-0.08544905,0.09655713,0.13188882,0.02578642,-0.17479265,0.08232577,0.03550732,0.007886643,-0.008114555,-0.04255252,0.061938234,0.03762042,0.029035743,-0.2663935,0.025391238,0.011291288,0.027575795,0.03265074,0.10634317,-0.21008746,0.12419461,0.09996393,0.1069576,0.25192827,0.041295514,0.11240728,-0.12030068,-0.012212633,-0.12633109,-0.01207393,0.04012472,0.25940037,0.13209812,0.06908133,-0.028286248,0.012954423,-0.008598394,0.0141481925,-0.17379701,0.15875578,0.026418436,-0.18752797,-0.09280771,0.2575159,-0.08972882,-0.16137417,0.0053337784,0.07887986,-0.07109465,-0.049859527,-0.15911019,0.034441285,0.01523311,-0.17693023,-0.06163324,-0.11967312,-0.59241617,-0.31486785,-0.19297554,-0.16242349,-0.08368416,0.12070945,0.0129033085,-0.1812503,-0.36000425,-0.3109132,-0.08546443,-0.16822639,0.31112492,0.035837818,0.07277897,-0.009525999,0.059097305,0.030296419,-0.1117909,-0.22772846,-0.023454266,-0.1439505,0.040041935,-0.0188183,0.016477661,0.12430679,0.061844032,0.18677726,-0.017329093,-0.04708988,0.09472288,-0.053679682,-0.02937239,-0.1430864,-0.19575924,0.116111994,-0.000103129074,0.18603829,0.039059676,0.025370305,0.09101175,-0.027108587,0.013380587,0.039193787,-0.07065613,0.023173101,0.107126705,-0.13840115,-0.032302525,-0.09347579,0.014886761,0.10913079,-0.1494799,-0.103579514,0.14883493,0.07891193,-0.017747216,0.21917593,-0.15211281,0.112813845,-0.15583056,0.010419307,0.21013027,0.00011645106,-0.021190206,0.0066801477,0.00648526,-0.055913873,0.026674416,0.115874976,0.5037486,0.035349928,0.035315696,0.14312246,-0.077584356,-0.044933923,0.24174827,-0.06427473,-0.019200422,-0.072181664,0.06864078,-0.04685181,-0.09906642,-0.29109007,-0.12483291,0.0064217094,0.037173387,0.25305277,-0.03504237,-0.006741532,-0.04465589,0.042705,-0.0126463855,0.0561221,0.042581458,0.025059132,0.107782334,0.021989213,-0.021016933,-0.02573993,0.35384044,-0.061814412,-0.074327156,0.03286942,0.036259927,-0.06381278,-0.12796026,-0.023630958,0.048059344,0.020041093,0.20625849,-0.025897417,-0.19844466,0.098856345,0.06207067,-0.020662911,-0.05567511,-0.03790531,-0.0042523667,-0.053907067,-0.14978227,-0.051164232,0.08432396,-0.0832926,-0.10647355,0.062560454,0.3311957,0.13175222,-0.20801015,-0.10147321,0.12546788,0.16664147,0.153237,-0.06359653,0.019865036,0.058947854,0.05538416,-0.027873583,0.04470786,0.029318169,-0.11710499,0.12695304,0.0925086,-0.011090679,-0.06086521,-0.006121354
Utilities,-0.1472068,0.157367,-0.07161949,-0.029971799,0.13768284,0.030542204,0.15193652,-0.11553236,-0.08802712,-0.013128006,0.0646374,-0.043517012,0.0318689,0.19843769,0.06481413,0.043074653,0.08307752,0.10311284,-0.24745087,0.040311795,-0.06566667,-0.084356524,0.04346162,-0.08179099,-0.008623886,-0.09713281,0.039884906,0.11549407,0.0635669,0.11683001,0.17369439,0.037165564,-0.046055797,0.18788487,0.10988036,-0.031050235,-0.21951349,0.0039825137,-0.11882951,0.017335253,0.091462396,-0.012715594,-0.04035312,-0.04558361,-0.08690036,0.16998155,-0.00020565155,-0.05073804,0.10501257,0.17300808,-0.01675485,0.031383112,-0.11478559,0.08376438,-0.19284992,-0.066383384,0.026255855,-0.061469298,0.08625341,0.065925434,0.17270374,-0.08297813,-0.0127885,-0.047230493,-0.054352928,0.056969363,0.17012608,-0.0041843937,-0.072964676,-0.09740617,0.3211568,0.024308369,0.018587552,0.28538874,-0.14054392,0.055754002,0.08012544,0.07854342,-0.11157429,-0.045360107,-0.11513639,0.01226902,-0.09101934,-0.022744946,-0.12697113,0.67406636,-0.088596046,0.021875212,-0.04470825,0.027495706,0.019464588,-0.09560248,0.1085472,-0.017905446,-0.058529336,0.04143299,0.03810947,-0.21911024,0.096081235,0.2691401,0.11834803,-0.10904652,0.1279123,-0.01551975,0.045803588,-0.010185267,-0.10502369,0.07845342,0.03304893,-0.033029605,0.1661064,-0.20264833,0.013914394,0.09068958,-0.08837243,0.08804998,0.19806403,0.026225036,-0.05792139,-0.04453644,0.19126062,-0.081164435,-0.05505508,0.054529417,0.15761961,0.019154001,-0.0043079494,0.02143734,-0.012125705,0.11910816,-0.12492791,-0.17259699,-0.016385159,0.03538767,-0.1057572,-0.18015732,0.040392358,-0.11735535,-0.08849447,-0.0014481269,0.044695403,-0.029307812,-0.20409589,0.0720264,-0.0103202835,-0.0013447342,-0.07635652,-0.043753594,-0.03173541,0.05555186,0.025859907,-0.022305718,-0.12327317,-0.0126437815,0.017179467,-0.029153096,0.08439627,-0.13824354,-0.15445691,-0.03265744,0.07143818,0.045967963,-0.05274096,0.04759836,0.067903705,0.2173291,-0.008712746,-0.23731756,-0.23606217,-0.2975063,0.030951783,0.002036887,-0.02172524,0.021354215,0.0387208,-0.23911844,0.20110542,-0.09191203,-0.10398943,0.09413072,-0.16682734,-0.045884725,0.041686784,0.13364983,-0.2810457,0.012463565,0.014167731,0.04914878,-0.13122343,0.004362143,-0.033517014,-0.12546335,-0.12169974,0.07632187,0.049228802,0.18109865,-0.06467243,-0.007512109,0.10453546,0.040463526,0.019961065,-0.21124981,-0.022301555,0.29482117,0.013117227,-0.019934947,0.03509022,0.012112671,0.1130701,0.11024038,0.17903107,0.0980387,0.07075736,-0.08536888,0.005133532,-0.10738027,0.0708608,0.17189038,-0.119802155,0.033236966,-0.01762904,0.059913073,0.121397205,0.009249992,0.052881893,0.08037844,0.0062982235,-0.061553765,0.04953511,-0.059678864,0.015658261,0.07545734,-0.14554155,0.07629107,-0.11022032,0.0261714,-0.023142697,0.3644429,0.17522229,0.15548205,-0.008114741,0.2745953,-0.050775077,-0.003132391,0.11181807,-0.11124039,-0.01718455,-0.04586962,-0.04058032,0.18492271,0.07159183,-0.05402482,0.1703731,0.0012457212,-0.016009986,0.20523392,0.06655192,0.001973604,-0.17614889,-0.08397781,-0.04729031,-0.09828157,-0.08303141,-0.056306887,-0.056623165,0.11730164,0.2373445,-0.17439152,0.17295511,0.026171679,-0.09839797,0.058029313,-0.017018383,-0.040509734,-0.025773061,0.035840172,-0.24440439,-0.16218883,-0.039348386,-0.03956462,0.012515531,-0.0041766595,-0.041907057,0.057325333,-0.06779228,0.083605744,-0.06079942,-0.23939669,-0.11402849,0.22615628,0.054492686,0.034531765,0.038905364,-0.1621027,-0.0733416,0.020656025,0.121772654,0.030963905,0.09855053,0.025693519,0.14084134,0.059626658,-0.081158124,0.17586632,-0.01642143,-0.025608858,0.14911114,0.050147597,0.09898219,0.1833878,0.14119053,-0.008860077,0.115317605,0.15077136,0.008353272,-0.112651326,0.14204377,0.004788632,-0.06637511,0.19404353,0.15974456,0.02305609,0.035815645,-0.06915752,-0.10249755,-0.13333897,-0.042315703,-0.06357607,0.15897341,0.09079511,0.10444331,-0.23014702,0.03891875,-0.0445696,-0.016452447,0.091174,-0.032781426,0.12045152,-0.030994741,0.032239545,-0.03230135,-0.092269,0.11292553,-0.21885471,0.41123,0.072409816,0.10949168,-0.0037864011,0.06669487,0.08166038,0.10258752,0.15483922,-0.1260667,0.058633257,0.092882186,0.06469392,-0.008871592,0.12266109,-0.14345503,0.09864366,0.07781973,-0.1104363,0.025608001,-0.0994991,-0.15981981,-0.15201399,-0.106670044,-0.09081163,-0.092487805,-0.033710927,0.09668809,0.15156661,-0.090677045,-0.119757585,0.027758561,-0.07268903,-0.06551281,-0.06855176,-0.07171061,-0.045364056,-0.07158635,-0.07841852,0.16858654,0.03883982,0.11713361,0.013766981,-0.14957398,-0.0852122,0.17441046,-0.088788904,0.052841235,0.10220471,0.0074986294,-0.063465245,0.17806661,-0.010196482,-0.18744712,-0.0047662263,0.029596599,-0.031799324,0.06114616,0.0245635,-0.07274679,-0.058127534,-0.02167209,-0.097572125,0.26751497,-0.04406503,-0.05242741,0.02126403,0.07337139,-0.049568076,0.093485154,0.04501949,-0.11516429,0.037440192,-0.047448736,0.028810471,0.050260592,-0.12537055,-0.02263902,-0.0041397423,-0.044480283,-0.065847374,-0.012143615,-0.13256703,-0.008355588,0.19672132,0.13014068,-0.14823896,-0.044157844,-0.057296038,-0.103372075,0.05521849,-0.088973634,-0.19069892,0.26272932,0.15020895,-0.17345357,0.080005,-0.1304945,-0.0757764,0.59136134,-0.004960804,-0.07250369,0.24293233,0.034327786,-0.27918753,-0.12860298,-0.09919857,-0.0052084564,-0.0067398115,-0.27992162,0.09084109,0.096172236,0.021736642,-0.0334963,0.09874013,-0.07588652,0.16066109,0.001151845,0.5573941,-0.12069953,-0.039407294,0.08162385,-0.02607712,0.2937983,-0.35667992,0.012328471,-0.06429456,-0.18582428,-0.06068034,-0.048170935,0.024760045,-0.032596268,-0.034507953,0.08703896,-0.114785284,0.09809204,0.09977329,-0.07581409,-0.045353334,-0.0025529303,0.06740342,-0.034433406,0.038724303,0.082649715,-0.06314389,0.027507668,-0.04024722,-0.14421304,-0.10537789,0.026366713,0.13980293,0.1794045,0.13783781,0.06514861,-0.054227937,-0.2242027,-0.1264294,-0.078175224,-0.09286109,0.054337908,0.10477644,0.004880611,-0.0558165,0.13766223,-0.11845336,0.037092123,0.012197215,-0.027550926,0.07654209,-0.103723764,-0.031150019,-0.0015023785,-0.031736143,-0.0072579407,0.18663223,0.14043097,-0.0028799977,0.04415141,0.021467878,0.038439926,0.078276366,-0.023889905,0.06300666,0.1098618,0.0075981356,0.06633898,0.021849724,-0.06791615,-0.096623756,0.0047525777,-0.0806221,-0.005156795,-0.15691383,-0.28047764,0.18701637,-0.036307026,-0.29742506,-0.017597124,0.12528317,-0.035753567,0.013188954,0.1489401,0.019508092,0.17599487,-0.07110621,-0.08034188,-0.06840928,0.028644433,-0.012007922,-0.12181479,0.084222786,-0.026855642,-0.14457737,-0.025503887,-0.15092266,0.058401424,0.23186864,-0.061847,-0.116025925,-0.04733522,0.062487375,-0.14416571,-0.110157035,0.068362474,0.008586924,0.15230699,-0.009773845,-0.12305886,0.03972994,0.19829506,0.09075851,-0.14099747,-0.01483841,0.060954124,0.009889212,-0.014408488,-0.25453737,0.044706892,-0.035818297,-0.02908499,-0.09454543,-0.08218658,-0.056670744,0.036193743,0.11376689,0.017871406,0.064945675,0.0013934323,0.1983069,0.020262728,-0.009678838,-0.10180173,-0.06964061,0.06593534,-0.07237979,0.23068123,-0.004852139,-0.016892264,0.00747951,-0.0013102982,0.00714026,-0.02062118,-0.19179417,0.08828008,0.022447502,0.09699553,0.21588641,-0.19079061,-0.17178194,0.07088277,0.03889345,-0.01827314,-0.07472708,0.15017682,0.08586801,0.09730899,-0.20961674,0.010704473,-0.018245408,-0.5149556,-0.013787077,-0.16786118,-0.14032292,0.038765002,-0.047451004,-0.18305384,-0.28391618,0.0010310411,-0.1910429,-0.037873704,0.10698714,0.15888888,-0.0016660368,0.12445456,-0.049794536,0.11109528,0.080229275,-0.021159448,0.17562091,-0.047394674,-0.30802065,0.082805894,-0.025811238,-0.11101989,0.06705593,-0.10327803,0.0068713613,-0.0071349717,0.49879006,0.09765613,-0.15934804,0.05178087,-0.1096176,-0.0024488063,-0.058863524,-0.15531841,0.11558912,0.101555735,0.1097837,-0.012879584,0.023122093,0.12337741,0.063363746,-0.09640787,-0.022060411,-0.044295132,0.23893954,-0.043879107,0.029277006,0.13916437,0.048045266,-0.03251897,-0.110782094,0.033145975,0.3956232,-0.03170306,0.075955935,-0.00087468076,-0.0599184,-0.10084873,0.09350719,-0.06978763,0.2945347,0.08786974,0.16377114,0.018400317,0.016864566,-0.0034271826,0.02080354,0.28594038,0.037355874,-0.071505114,-0.00094887987,-0.1939209,-0.043916583,0.011343478,-0.113708355,-0.02560852,-0.13880114,0.061110396,-0.15458189,-0.38750038,0.07570296,0.00208693,0.1645919,-0.12487674,0.21405669,-0.12351205,0.059270497,-0.024466118,0.008578618,-0.26690337,0.02064399,-0.103901684,0.049645495,0.01876232,0.018181996,0.24034832,-0.021468408,0.099785484,-0.048666522,0.06311519,-0.1204465,0.08028448,-0.012901183,-0.39528418,-0.16787,-0.026649078,-0.026337981,0.13588004,-0.10012587,0.007268086,-0.028383441,0.034487817,-0.022289889,-0.04545468,-0.08623227,-0.03095878,0.023746846,-0.01232798,0.021846147,-0.0849726,-0.09933263,0.08504263,-0.009933288,0.23068607,-0.044767033,-0.18518274,-0.015775265,0.27431533,0.11856184,0.036030415,-0.07731374,-0.12457642,0.007891525,0.037056405,-0.06596941,0.07957984,0.042375162,0.006081631,-0.24618055,0.019873044,-0.025497803,-0.087314464,-0.029420884
